svm_type c_svc
kernel_type rbf
gamma 0.016666666666666666
nr_class 10
total_sv 168
rho -0.008787022366415058 0.13120701573827293 0.058948139039608397 0.014940892507259603 0.045270246522536854 0.014701389798512992 0.059701765850538054 0.23478311775157099 0.04698685930860371 0.11199692401294695 0.001564054335650764 0.005422631254053307 0.03477514056979923 -0.004007113887141489 0.0179405041452085 0.1275768279972416 0.029655240382819956 -0.028388716863948386 -0.056322188976961084 -0.042881010367930544 -0.10773249248279552 -0.10604743359384351 0.06482156368249505 -0.08629924739404908 -0.013127785923651273 -0.0037833318970548913 -0.007964061056097618 0.0033042756284089514 0.14440549453953938 -0.0414867258657063 0.05727256292818366 0.025404880358423542 0.026494227251370392 0.18554715807826322 0.004892892195899427 -0.033760730234895134 -0.011882314684548693 0.062493584199410555 -0.02514879982672985 0.013051949367435403 0.06645477519530507 -0.004618447832345376 -0.03141941832550426 -0.0361924618761426 -0.11561079550232514
label 0 1 2 6 3 4 7 9 8 5
nr_sv 18 12 21 16 17 12 13 20 21 18
SV
0.0 0.0 0.0 0.13564806066002308 0.6175430573321802 0.0 0.0 0.0 0.0 1:0.0 2:1.0 3:1.0 4:1.0 5:1.0 6:0.0 7:1.0 8:0.0 9:0.0 10:0.0 11:0.0 12:1.0 13:1.0 14:0.0 15:0.0 16:0.0 17:0.0 18:1.0 19:1.0 20:0.0 21:1.0 22:1.0 23:0.0 24:1.0 25:1.0 26:0.0 27:1.0 28:1.0 29:0.0 30:1.0 31:1.0 32:0.0 33:1.0 34:1.0 35:0.0 36:1.0 37:1.0 38:0.0 39:1.0 40:1.0 41:0.0 42:1.0 43:1.0 44:0.0 45:0.0 46:1.0 47:0.0 48:1.0 49:1.0 50:0.0 51:0.0 52:0.0 53:0.0 54:1.0 55:0.0 56:1.0 57:1.0 58:1.0 59:1.0 60:0.0 
0.0 0.0 0.0 0.13271230335963285 0.0 0.0 0.0 1.0 1.0 1:0.0 2:1.0 3:1.0 4:1.0 5:1.0 6:0.0 7:1.0 8:0.0 9:0.0 10:0.0 11:0.0 12:1.0 13:1.0 14:0.0 15:0.0 16:0.0 17:0.0 18:1.0 19:1.0 20:0.0 21:1.0 22:1.0 23:0.0 24:1.0 25:1.0 26:1.0 27:1.0 28:1.0 29:0.0 30:1.0 31:1.0 32:0.0 33:1.0 34:1.0 35:0.0 36:1.0 37:1.0 38:0.0 39:1.0 40:1.0 41:0.0 42:1.0 43:1.0 44:0.0 45:0.0 46:0.0 47:0.0 48:1.0 49:1.0 50:0.0 51:0.0 52:0.0 53:0.0 54:1.0 55:0.0 56:1.0 57:1.0 58:1.0 59:1.0 60:0.0 
0.511678404925135 0.20993067157180373 0.02120697684599526 0.40022143437193924 0.3422882511034274 0.7788648484926521 0.0 0.0 0.19553172357663373 1:0.0 2:1.0 3:1.0 4:1.0 5:1.0 6:0.0 7:1.0 8:0.0 9:0.0 10:0.0 11:0.0 12:1.0 13:1.0 14:1.0 15:0.0 16:1.0 17:0.0 18:1.0 19:1.0 20:0.0 21:1.0 22:1.0 23:0.0 24:1.0 25:1.0 26:0.0 27:1.0 28:1.0 29:0.0 30:1.0 31:1.0 32:0.0 33:1.0 34:1.0 35:0.0 36:1.0 37:1.0 38:0.0 39:1.0 40:1.0 41:0.0 42:1.0 43:1.0 44:0.0 45:1.0 46:0.0 47:0.0 48:1.0 49:1.0 50:0.0 51:0.0 52:0.0 53:0.0 54:1.0 55:0.0 56:1.0 57:1.0 58:1.0 59:1.0 60:0.0 
0.0 0.0 0.0 0.13439278873736205 0.0 0.0 1.0 0.0 0.07115597126091543 1:0.0 2:1.0 3:1.0 4:1.0 5:1.0 6:0.0 7:1.0 8:0.0 9:0.0 10:0.0 11:0.0 12:1.0 13:1.0 14:1.0 15:0.0 16:0.0 17:0.0 18:1.0 19:1.0 20:0.0 21:1.0 22:1.0 23:0.0 24:1.0 25:1.0 26:0.0 27:1.0 28:1.0 29:0.0 30:1.0 31:1.0 32:0.0 33:1.0 34:1.0 35:0.0 36:1.0 37:1.0 38:0.0 39:1.0 40:1.0 41:0.0 42:1.0 43:1.0 44:0.0 45:0.0 46:0.0 47:0.0 48:1.0 49:1.0 50:0.0 51:0.0 52:0.0 53:1.0 54:1.0 55:0.0 56:1.0 57:1.0 58:1.0 59:1.0 60:0.0 
0.0 0.600043624584917 0.0 1.0 0.0 0.0 0.0 1.0 1.0 1:0.0 2:1.0 3:1.0 4:1.0 5:1.0 6:0.0 7:1.0 8:0.0 9:0.0 10:0.0 11:0.0 12:1.0 13:1.0 14:0.0 15:0.0 16:0.0 17:0.0 18:1.0 19:1.0 20:0.0 21:1.0 22:1.0 23:0.0 24:1.0 25:1.0 26:0.0 27:1.0 28:1.0 29:0.0 30:1.0 31:1.0 32:0.0 33:1.0 34:1.0 35:1.0 36:1.0 37:1.0 38:0.0 39:1.0 40:1.0 41:0.0 42:1.0 43:1.0 44:0.0 45:0.0 46:0.0 47:0.0 48:1.0 49:1.0 50:0.0 51:0.0 52:0.0 53:0.0 54:1.0 55:0.0 56:1.0 57:1.0 58:1.0 59:1.0 60:0.0 
0.0 0.0 1.0 0.0 0.0 0.0 0.7123150922493057 1.0 0.0 1:0.0 2:1.0 3:1.0 4:1.0 5:1.0 6:0.0 7:1.0 8:0.0 9:0.0 10:0.0 11:0.0 12:1.0 13:1.0 14:0.0 15:0.0 16:0.0 17:0.0 18:1.0 19:1.0 20:0.0 21:1.0 22:1.0 23:0.0 24:1.0 25:1.0 26:0.0 27:1.0 28:1.0 29:0.0 30:1.0 31:1.0 32:1.0 33:1.0 34:1.0 35:0.0 36:1.0 37:1.0 38:0.0 39:1.0 40:1.0 41:0.0 42:1.0 43:1.0 44:0.0 45:0.0 46:0.0 47:0.0 48:1.0 49:1.0 50:0.0 51:0.0 52:0.0 53:0.0 54:1.0 55:0.0 56:1.0 57:1.0 58:1.0 59:1.0 60:0.0 
0.16300738792130082 0.0 1.0 0.0 0.0 0.9670872913473954 0.5217895792348679 0.6330205515991092 0.025081808194719796 1:0.0 2:1.0 3:1.0 4:1.0 5:1.0 6:0.0 7:1.0 8:0.0 9:0.0 10:0.0 11:0.0 12:1.0 13:1.0 14:0.0 15:0.0 16:0.0 17:0.0 18:1.0 19:1.0 20:0.0 21:1.0 22:1.0 23:0.0 24:1.0 25:1.0 26:0.0 27:1.0 28:1.0 29:0.0 30:1.0 31:1.0 32:1.0 33:1.0 34:1.0 35:0.0 36:1.0 37:1.0 38:0.0 39:1.0 40:1.0 41:0.0 42:1.0 43:1.0 44:0.0 45:0.0 46:0.0 47:0.0 48:1.0 49:1.0 50:0.0 51:1.0 52:0.0 53:0.0 54:1.0 55:0.0 56:1.0 57:1.0 58:1.0 59:1.0 60:0.0 
0.0 0.6077267413226793 0.5300628945648119 0.0 0.3872254753822275 0.0 0.5615194544690342 0.6435547971949587 0.10515210849086046 1:0.0 2:1.0 3:1.0 4:1.0 5:1.0 6:0.0 7:1.0 8:0.0 9:0.0 10:0.0 11:0.0 12:1.0 13:1.0 14:0.0 15:0.0 16:0.0 17:0.0 18:1.0 19:1.0 20:1.0 21:1.0 22:1.0 23:0.0 24:1.0 25:1.0 26:0.0 27:1.0 28:1.0 29:1.0 30:1.0 31:1.0 32:0.0 33:1.0 34:1.0 35:0.0 36:1.0 37:1.0 38:0.0 39:1.0 40:1.0 41:0.0 42:1.0 43:1.0 44:0.0 45:0.0 46:0.0 47:0.0 48:1.0 49:1.0 50:0.0 51:0.0 52:0.0 53:0.0 54:1.0 55:0.0 56:1.0 57:1.0 58:1.0 59:1.0 60:0.0 
1.0 1.0 0.0 0.6583453173501487 0.5656709378351471 0.4622163553187536 0.0 0.0 0.2894138165218265 1:0.0 2:1.0 3:1.0 4:1.0 5:1.0 6:0.0 7:1.0 8:0.0 9:0.0 10:0.0 11:0.0 12:1.0 13:1.0 14:0.0 15:0.0 16:0.0 17:0.0 18:1.0 19:1.0 20:0.0 21:1.0 22:1.0 23:0.0 24:1.0 25:1.0 26:0.0 27:1.0 28:1.0 29:0.0 30:1.0 31:1.0 32:0.0 33:1.0 34:1.0 35:0.0 36:1.0 37:1.0 38:0.0 39:1.0 40:1.0 41:0.0 42:1.0 43:1.0 44:0.0 45:0.0 46:0.0 47:0.0 48:1.0 49:1.0 50:0.0 51:1.0 52:1.0 53:0.0 54:1.0 55:1.0 56:1.0 57:1.0 58:1.0 59:1.0 60:0.0 
0.0 0.0 0.0 0.13271230335963372 0.5951631431561936 0.0 0.0 0.0 0.5804161991711231 1:0.0 2:1.0 3:1.0 4:1.0 5:1.0 6:0.0 7:1.0 8:0.0 9:0.0 10:0.0 11:0.0 12:1.0 13:1.0 14:0.0 15:0.0 16:0.0 17:0.0 18:1.0 19:1.0 20:0.0 21:1.0 22:1.0 23:0.0 24:1.0 25:1.0 26:0.0 27:1.0 28:1.0 29:0.0 30:1.0 31:1.0 32:0.0 33:1.0 34:1.0 35:0.0 36:1.0 37:1.0 38:0.0 39:1.0 40:1.0 41:1.0 42:1.0 43:1.0 44:0.0 45:0.0 46:0.0 47:0.0 48:1.0 49:1.0 50:0.0 51:0.0 52:0.0 53:0.0 54:1.0 55:0.0 56:1.0 57:1.0 58:1.0 59:1.0 60:0.0 
0.0 1.0 1.0 0.0 0.0 0.0 1.0 1.0 0.0 1:0.0 2:1.0 3:1.0 4:1.0 5:1.0 6:0.0 7:1.0 8:0.0 9:0.0 10:0.0 11:0.0 12:1.0 13:1.0 14:0.0 15:0.0 16:0.0 17:0.0 18:1.0 19:1.0 20:0.0 21:1.0 22:1.0 23:0.0 24:1.0 25:1.0 26:0.0 27:1.0 28:1.0 29:1.0 30:1.0 31:1.0 32:0.0 33:1.0 34:1.0 35:0.0 36:1.0 37:1.0 38:0.0 39:1.0 40:1.0 41:0.0 42:1.0 43:1.0 44:0.0 45:0.0 46:0.0 47:0.0 48:1.0 49:1.0 50:0.0 51:0.0 52:0.0 53:0.0 54:1.0 55:0.0 56:1.0 57:1.0 58:1.0 59:1.0 60:0.0 
0.6488787981173588 0.0 1.0 0.33661056770383246 0.37818837261297894 0.0 0.0 0.0 0.11813788557277864 1:0.0 2:1.0 3:1.0 4:1.0 5:1.0 6:0.0 7:1.0 8:1.0 9:0.0 10:0.0 11:0.0 12:1.0 13:1.0 14:0.0 15:0.0 16:0.0 17:0.0 18:1.0 19:1.0 20:1.0 21:1.0 22:1.0 23:0.0 24:1.0 25:1.0 26:0.0 27:1.0 28:1.0 29:0.0 30:1.0 31:1.0 32:0.0 33:1.0 34:1.0 35:0.0 36:1.0 37:1.0 38:0.0 39:1.0 40:1.0 41:0.0 42:1.0 43:1.0 44:0.0 45:0.0 46:0.0 47:0.0 48:1.0 49:1.0 50:0.0 51:0.0 52:0.0 53:0.0 54:1.0 55:0.0 56:1.0 57:1.0 58:1.0 59:1.0 60:0.0 
0.0 0.0 0.0 0.13705977048863818 0.0 1.0 0.0 0.0 1.0 1:1.0 2:1.0 3:1.0 4:1.0 5:1.0 6:0.0 7:1.0 8:0.0 9:0.0 10:0.0 11:0.0 12:1.0 13:1.0 14:0.0 15:0.0 16:0.0 17:0.0 18:1.0 19:1.0 20:0.0 21:1.0 22:1.0 23:0.0 24:1.0 25:1.0 26:0.0 27:1.0 28:1.0 29:0.0 30:1.0 31:1.0 32:0.0 33:1.0 34:1.0 35:0.0 36:1.0 37:1.0 38:0.0 39:1.0 40:1.0 41:0.0 42:1.0 43:1.0 44:0.0 45:0.0 46:0.0 47:0.0 48:1.0 49:1.0 50:0.0 51:0.0 52:0.0 53:0.0 54:1.0 55:0.0 56:1.0 57:1.0 58:1.0 59:1.0 60:0.0 
0.3836664368781608 0.7969559633104295 1.0 0.3969642745744064 0.0 0.0 0.5615194544690336 1.0 0.0 1:0.0 2:1.0 3:1.0 4:1.0 5:1.0 6:0.0 7:1.0 8:0.0 9:1.0 10:0.0 11:0.0 12:1.0 13:1.0 14:0.0 15:0.0 16:0.0 17:0.0 18:1.0 19:1.0 20:0.0 21:1.0 22:1.0 23:0.0 24:1.0 25:1.0 26:0.0 27:1.0 28:1.0 29:1.0 30:1.0 31:1.0 32:0.0 33:1.0 34:1.0 35:0.0 36:1.0 37:1.0 38:0.0 39:1.0 40:1.0 41:0.0 42:1.0 43:1.0 44:0.0 45:0.0 46:0.0 47:0.0 48:1.0 49:1.0 50:0.0 51:0.0 52:0.0 53:0.0 54:1.0 55:0.0 56:1.0 57:1.0 58:1.0 59:1.0 60:0.0 
0.5481844745003046 0.0 0.0 0.6578326588789302 0.683033695012143 0.0 0.0 0.0 0.22757981186838042 1:0.0 2:1.0 3:1.0 4:1.0 5:1.0 6:0.0 7:1.0 8:0.0 9:1.0 10:0.0 11:0.0 12:1.0 13:1.0 14:0.0 15:0.0 16:1.0 17:0.0 18:1.0 19:1.0 20:0.0 21:1.0 22:1.0 23:0.0 24:1.0 25:1.0 26:0.0 27:1.0 28:1.0 29:0.0 30:1.0 31:1.0 32:0.0 33:1.0 34:1.0 35:0.0 36:1.0 37:1.0 38:0.0 39:1.0 40:1.0 41:0.0 42:1.0 43:1.0 44:0.0 45:0.0 46:0.0 47:0.0 48:1.0 49:1.0 50:1.0 51:0.0 52:0.0 53:0.0 54:1.0 55:0.0 56:1.0 57:1.0 58:1.0 59:1.0 60:0.0 
0.0 0.0 1.0 0.13271230335963288 0.0 0.0 0.9179710062372474 1.0 0.0 1:0.0 2:1.0 3:1.0 4:1.0 5:1.0 6:0.0 7:1.0 8:0.0 9:0.0 10:0.0 11:0.0 12:1.0 13:1.0 14:0.0 15:0.0 16:0.0 17:0.0 18:1.0 19:1.0 20:0.0 21:1.0 22:1.0 23:0.0 24:1.0 25:1.0 26:0.0 27:1.0 28:1.0 29:0.0 30:1.0 31:1.0 32:1.0 33:1.0 34:1.0 35:0.0 36:1.0 37:1.0 38:0.0 39:1.0 40:1.0 41:0.0 42:1.0 43:1.0 44:0.0 45:0.0 46:0.0 47:0.0 48:1.0 49:1.0 50:0.0 51:0.0 52:0.0 53:0.0 54:1.0 55:0.0 56:1.0 57:1.0 58:1.0 59:1.0 60:0.0 
0.0 0.014410494948053297 0.0 1.0 0.0 0.0 0.0 0.0 1.0 1:0.0 2:1.0 3:1.0 4:1.0 5:1.0 6:0.0 7:1.0 8:0.0 9:0.0 10:0.0 11:0.0 12:1.0 13:1.0 14:0.0 15:0.0 16:0.0 17:0.0 18:1.0 19:1.0 20:0.0 21:1.0 22:1.0 23:1.0 24:1.0 25:1.0 26:0.0 27:1.0 28:1.0 29:0.0 30:1.0 31:1.0 32:0.0 33:1.0 34:1.0 35:0.0 36:1.0 37:1.0 38:0.0 39:1.0 40:1.0 41:0.0 42:1.0 43:1.0 44:0.0 45:0.0 46:0.0 47:0.0 48:1.0 49:1.0 50:0.0 51:0.0 52:0.0 53:0.0 54:1.0 55:0.0 56:1.0 57:1.0 58:1.0 59:1.0 60:0.0 
0.0 1.0 0.0 0.13271230335963352 0.0 0.0 0.0 0.0 0.0 1:0.0 2:1.0 3:1.0 4:1.0 5:1.0 6:0.0 7:1.0 8:0.0 9:0.0 10:0.0 11:0.0 12:1.0 13:1.0 14:0.0 15:0.0 16:0.0 17:0.0 18:1.0 19:1.0 20:0.0 21:1.0 22:1.0 23:0.0 24:1.0 25:1.0 26:0.0 27:1.0 28:1.0 29:0.0 30:1.0 31:1.0 32:0.0 33:1.0 34:1.0 35:0.0 36:1.0 37:1.0 38:0.0 39:1.0 40:1.0 41:0.0 42:1.0 43:1.0 44:1.0 45:0.0 46:0.0 47:0.0 48:1.0 49:1.0 50:0.0 51:0.0 52:0.0 53:0.0 54:1.0 55:0.0 56:1.0 57:1.0 58:1.0 59:1.0 60:0.0 
-0.3816816255478749 0.207803016251502 0.14494352015502604 0.08866196154760907 1.0 0.3385938484883754 0.040746366987309775 0.17010404457673 0.06171876076306168 1:0.0 2:0.0 3:1.0 4:1.0 5:0.0 6:0.0 7:1.0 8:1.0 9:1.0 10:0.0 11:0.0 12:0.0 13:0.0 14:0.0 15:1.0 16:1.0 17:0.0 18:0.0 19:0.0 20:0.0 21:1.0 22:0.0 23:0.0 24:0.0 25:0.0 26:0.0 27:1.0 28:0.0 29:0.0 30:0.0 31:0.0 32:0.0 33:1.0 34:0.0 35:0.0 36:0.0 37:0.0 38:0.0 39:1.0 40:0.0 41:0.0 42:0.0 43:0.0 44:0.0 45:1.0 46:0.0 47:0.0 48:0.0 49:0.0 50:0.0 51:1.0 52:0.0 53:0.0 54:0.0 55:1.0 56:1.0 57:1.0 58:1.0 59:1.0 60:0.0 
-0.3601296460819932 0.0 0.0 0.0 0.46736834228876023 0.0 0.4698229350356624 0.0 0.0 1:0.0 2:0.0 3:1.0 4:0.0 5:0.0 6:0.0 7:1.0 8:1.0 9:1.0 10:0.0 11:0.0 12:0.0 13:0.0 14:0.0 15:1.0 16:0.0 17:0.0 18:0.0 19:0.0 20:0.0 21:1.0 22:0.0 23:0.0 24:0.0 25:0.0 26:0.0 27:1.0 28:0.0 29:0.0 30:0.0 31:0.0 32:0.0 33:1.0 34:0.0 35:0.0 36:0.0 37:0.0 38:0.0 39:1.0 40:1.0 41:0.0 42:0.0 43:0.0 44:0.0 45:1.0 46:0.0 47:0.0 48:0.0 49:0.0 50:0.0 51:1.0 52:0.0 53:1.0 54:0.0 55:1.0 56:1.0 57:1.0 58:1.0 59:1.0 60:0.0 
-0.0 0.0 0.0 0.0 0.22854671205950214 0.0 0.0 0.0 0.06992097353297701 1:0.0 2:0.0 3:1.0 4:0.0 5:0.0 6:0.0 7:1.0 8:1.0 9:1.0 10:1.0 11:0.0 12:0.0 13:0.0 14:0.0 15:1.0 16:0.0 17:0.0 18:0.0 19:0.0 20:0.0 21:1.0 22:0.0 23:0.0 24:0.0 25:0.0 26:1.0 27:1.0 28:0.0 29:0.0 30:0.0 31:0.0 32:0.0 33:1.0 34:0.0 35:0.0 36:0.0 37:0.0 38:0.0 39:1.0 40:0.0 41:0.0 42:0.0 43:0.0 44:0.0 45:1.0 46:0.0 47:0.0 48:0.0 49:0.0 50:0.0 51:1.0 52:0.0 53:0.0 54:0.0 55:1.0 56:1.0 57:1.0 58:1.0 59:1.0 60:0.0 
-0.0 0.0 0.16609781224166983 0.0 0.0 0.0 0.0 0.0 0.04576948230205277 1:0.0 2:0.0 3:1.0 4:0.0 5:0.0 6:0.0 7:1.0 8:1.0 9:1.0 10:0.0 11:0.0 12:0.0 13:0.0 14:1.0 15:1.0 16:0.0 17:0.0 18:0.0 19:0.0 20:0.0 21:1.0 22:0.0 23:0.0 24:0.0 25:0.0 26:0.0 27:1.0 28:0.0 29:0.0 30:0.0 31:0.0 32:0.0 33:1.0 34:0.0 35:0.0 36:0.0 37:0.0 38:0.0 39:1.0 40:0.0 41:0.0 42:0.0 43:0.0 44:0.0 45:1.0 46:0.0 47:0.0 48:0.0 49:1.0 50:0.0 51:1.0 52:0.0 53:0.0 54:0.0 55:1.0 56:1.0 57:1.0 58:1.0 59:1.0 60:0.0 
-1.0 1.0 0.06556389573979406 0.40098501098749273 0.11792818810598978 0.0 1.0 0.6923298861997297 0.04741763310188338 1:0.0 2:0.0 3:1.0 4:0.0 5:0.0 6:0.0 7:1.0 8:1.0 9:1.0 10:0.0 11:0.0 12:0.0 13:0.0 14:0.0 15:1.0 16:0.0 17:0.0 18:0.0 19:0.0 20:0.0 21:1.0 22:0.0 23:0.0 24:0.0 25:0.0 26:0.0 27:1.0 28:0.0 29:0.0 30:0.0 31:0.0 32:0.0 33:1.0 34:1.0 35:0.0 36:0.0 37:0.0 38:0.0 39:1.0 40:0.0 41:0.0 42:0.0 43:0.0 44:0.0 45:1.0 46:0.0 47:0.0 48:0.0 49:1.0 50:0.0 51:1.0 52:0.0 53:0.0 54:0.0 55:1.0 56:1.0 57:1.0 58:1.0 59:1.0 60:0.0 
-0.20280466256095656 0.7682252960220558 0.0 0.5985796762370452 0.0 0.8478821546350268 0.4204394919798746 0.7277479495414462 0.535788930547954 1:0.0 2:1.0 3:1.0 4:0.0 5:0.0 6:0.0 7:1.0 8:1.0 9:1.0 10:0.0 11:0.0 12:0.0 13:0.0 14:0.0 15:1.0 16:0.0 17:0.0 18:0.0 19:0.0 20:0.0 21:1.0 22:0.0 23:0.0 24:0.0 25:0.0 26:0.0 27:1.0 28:0.0 29:0.0 30:0.0 31:0.0 32:0.0 33:1.0 34:0.0 35:0.0 36:0.0 37:0.0 38:0.0 39:1.0 40:0.0 41:0.0 42:0.0 43:0.0 44:0.0 45:1.0 46:0.0 47:0.0 48:0.0 49:0.0 50:0.0 51:1.0 52:0.0 53:0.0 54:0.0 55:1.0 56:1.0 57:1.0 58:1.0 59:1.0 60:0.0 
-0.20374943280675756 0.7716989066919436 0.6973752005741938 0.5952031138472342 0.0 0.8292072378288412 0.420439491979875 0.697807700156272 0.5367370258030154 1:0.0 2:0.0 3:1.0 4:0.0 5:0.0 6:0.0 7:1.0 8:1.0 9:1.0 10:0.0 11:0.0 12:0.0 13:1.0 14:0.0 15:1.0 16:0.0 17:0.0 18:0.0 19:0.0 20:0.0 21:1.0 22:0.0 23:0.0 24:0.0 25:0.0 26:0.0 27:1.0 28:0.0 29:0.0 30:0.0 31:0.0 32:0.0 33:1.0 34:0.0 35:0.0 36:0.0 37:0.0 38:0.0 39:1.0 40:0.0 41:0.0 42:0.0 43:0.0 44:0.0 45:1.0 46:0.0 47:0.0 48:0.0 49:0.0 50:0.0 51:1.0 52:0.0 53:0.0 54:0.0 55:1.0 56:1.0 57:1.0 58:1.0 59:1.0 60:0.0 
-0.0 0.09011286392645909 0.0 0.0 0.38640319274517504 0.0 0.0 0.0 0.0 1:0.0 2:0.0 3:1.0 4:0.0 5:0.0 6:0.0 7:1.0 8:1.0 9:1.0 10:0.0 11:0.0 12:0.0 13:0.0 14:0.0 15:1.0 16:0.0 17:0.0 18:0.0 19:0.0 20:0.0 21:1.0 22:0.0 23:0.0 24:0.0 25:0.0 26:0.0 27:1.0 28:0.0 29:0.0 30:0.0 31:0.0 32:0.0 33:1.0 34:0.0 35:0.0 36:0.0 37:0.0 38:0.0 39:1.0 40:0.0 41:0.0 42:0.0 43:0.0 44:0.0 45:1.0 46:0.0 47:0.0 48:0.0 49:0.0 50:0.0 51:1.0 52:0.0 53:0.0 54:0.0 55:1.0 56:1.0 57:1.0 58:1.0 59:1.0 60:1.0 
-0.20374943280675878 0.0 0.6973752005741936 0.5975513962383333 0.38596725505941465 0.8473152693034014 0.0 0.08689261781917483 0.0 1:0.0 2:0.0 3:1.0 4:0.0 5:0.0 6:0.0 7:1.0 8:1.0 9:1.0 10:0.0 11:0.0 12:0.0 13:0.0 14:0.0 15:1.0 16:0.0 17:0.0 18:0.0 19:0.0 20:0.0 21:1.0 22:0.0 23:0.0 24:0.0 25:0.0 26:0.0 27:1.0 28:1.0 29:0.0 30:0.0 31:0.0 32:0.0 33:1.0 34:0.0 35:0.0 36:0.0 37:0.0 38:0.0 39:1.0 40:0.0 41:0.0 42:0.0 43:0.0 44:0.0 45:1.0 46:0.0 47:0.0 48:0.0 49:0.0 50:0.0 51:1.0 52:0.0 53:0.0 54:0.0 55:1.0 56:1.0 57:1.0 58:1.0 59:1.0 60:0.0 
-0.0 0.0 0.0 0.0 0.0 0.8478821546350263 0.0 0.0 0.5348468886984591 1:1.0 2:0.0 3:1.0 4:0.0 5:0.0 6:0.0 7:1.0 8:1.0 9:1.0 10:0.0 11:0.0 12:0.0 13:0.0 14:0.0 15:1.0 16:0.0 17:0.0 18:0.0 19:0.0 20:0.0 21:1.0 22:0.0 23:0.0 24:0.0 25:0.0 26:0.0 27:1.0 28:0.0 29:0.0 30:0.0 31:0.0 32:0.0 33:1.0 34:0.0 35:0.0 36:0.0 37:0.0 38:0.0 39:1.0 40:0.0 41:0.0 42:0.0 43:0.0 44:0.0 45:1.0 46:0.0 47:0.0 48:0.0 49:0.0 50:0.0 51:1.0 52:0.0 53:0.0 54:0.0 55:1.0 56:1.0 57:1.0 58:1.0 59:1.0 60:0.0 
-0.6961067084822146 1.0 0.975620836965164 1.0 0.7276790909375319 0.7235786234827484 1.0 1.0 1.0 1:0.0 2:0.0 3:1.0 4:1.0 5:0.0 6:0.0 7:1.0 8:1.0 9:1.0 10:0.0 11:0.0 12:0.0 13:0.0 14:0.0 15:1.0 16:0.0 17:0.0 18:0.0 19:0.0 20:0.0 21:1.0 22:0.0 23:0.0 24:0.0 25:0.0 26:1.0 27:1.0 28:0.0 29:0.0 30:0.0 31:0.0 32:0.0 33:1.0 34:0.0 35:0.0 36:0.0 37:0.0 38:1.0 39:1.0 40:0.0 41:0.0 42:0.0 43:0.0 44:0.0 45:1.0 46:0.0 47:0.0 48:0.0 49:1.0 50:1.0 51:1.0 52:0.0 53:0.0 54:0.0 55:1.0 56:1.0 57:1.0 58:1.0 59:1.0 60:0.0 
-0.20719399405570468 0.768225296022055 0.6852981413497841 0.5985796762370458 0.0 0.0 0.0 0.11102464887947343 0.535788930547954 1:0.0 2:0.0 3:1.0 4:0.0 5:0.0 6:0.0 7:1.0 8:1.0 9:1.0 10:0.0 11:0.0 12:0.0 13:0.0 14:0.0 15:1.0 16:0.0 17:0.0 18:0.0 19:0.0 20:0.0 21:1.0 22:0.0 23:0.0 24:0.0 25:0.0 26:0.0 27:1.0 28:0.0 29:0.0 30:0.0 31:0.0 32:0.0 33:1.0 34:0.0 35:0.0 36:0.0 37:0.0 38:0.0 39:1.0 40:0.0 41:0.0 42:0.0 43:0.0 44:0.0 45:1.0 46:0.0 47:0.0 48:0.0 49:0.0 50:0.0 51:1.0 52:0.0 53:0.0 54:1.0 55:1.0 56:1.0 57:1.0 58:1.0 59:1.0 60:0.0 
-0.1564339926951845 -0.4345688019549914 0.0 0.0 0.3291313027794196 0.46104225414236066 1.0 0.0 0.0 1:0.0 2:1.0 3:1.0 4:1.0 5:1.0 6:0.0 7:1.0 8:0.0 9:0.0 10:0.0 11:0.0 12:1.0 13:1.0 14:0.0 15:0.0 16:0.0 17:0.0 18:1.0 19:0.0 20:0.0 21:0.0 22:0.0 23:0.0 24:1.0 25:0.0 26:0.0 27:0.0 28:0.0 29:1.0 30:0.0 31:0.0 32:0.0 33:1.0 34:1.0 35:0.0 36:0.0 37:0.0 38:0.0 39:1.0 40:0.0 41:1.0 42:0.0 43:0.0 44:1.0 45:0.0 46:0.0 47:0.0 48:0.0 49:1.0 50:0.0 51:0.0 52:0.0 53:0.0 54:1.0 55:1.0 56:1.0 57:1.0 58:1.0 59:1.0 60:1.0 
-0.0 -0.0 0.0 0.0 0.0965784763369273 0.0 0.0 0.0 0.0 1:0.0 2:1.0 3:1.0 4:1.0 5:1.0 6:0.0 7:1.0 8:0.0 9:0.0 10:0.0 11:0.0 12:1.0 13:1.0 14:1.0 15:0.0 16:0.0 17:0.0 18:1.0 19:0.0 20:0.0 21:0.0 22:0.0 23:0.0 24:1.0 25:0.0 26:0.0 27:0.0 28:0.0 29:1.0 30:0.0 31:0.0 32:0.0 33:0.0 34:1.0 35:0.0 36:0.0 37:0.0 38:0.0 39:1.0 40:0.0 41:1.0 42:0.0 43:0.0 44:1.0 45:0.0 46:0.0 47:1.0 48:0.0 49:1.0 50:0.0 51:0.0 52:0.0 53:0.0 54:1.0 55:1.0 56:1.0 57:1.0 58:1.0 59:1.0 60:1.0 
-0.0 -0.7084041739258311 0.07373816233281161 0.0 0.0 0.0 0.3396313768034525 0.0 0.0 1:0.0 2:1.0 3:1.0 4:1.0 5:1.0 6:0.0 7:1.0 8:0.0 9:1.0 10:0.0 11:0.0 12:1.0 13:1.0 14:0.0 15:0.0 16:0.0 17:0.0 18:1.0 19:0.0 20:0.0 21:0.0 22:0.0 23:0.0 24:1.0 25:0.0 26:0.0 27:0.0 28:0.0 29:1.0 30:0.0 31:0.0 32:1.0 33:0.0 34:1.0 35:0.0 36:0.0 37:0.0 38:0.0 39:1.0 40:0.0 41:0.0 42:0.0 43:0.0 44:1.0 45:0.0 46:0.0 47:0.0 48:0.0 49:1.0 50:0.0 51:0.0 52:0.0 53:0.0 54:1.0 55:1.0 56:1.0 57:1.0 58:1.0 59:1.0 60:1.0 
-0.042211429600516326 -0.3331458984055217 0.13251137434575228 1.0 0.0 0.3872634895547481 0.6312597458229277 0.7083407830788198 0.1311326347399605 1:0.0 2:1.0 3:1.0 4:1.0 5:1.0 6:0.0 7:1.0 8:0.0 9:0.0 10:0.0 11:0.0 12:1.0 13:1.0 14:0.0 15:0.0 16:0.0 17:0.0 18:1.0 19:0.0 20:0.0 21:0.0 22:0.0 23:0.0 24:1.0 25:0.0 26:0.0 27:0.0 28:0.0 29:1.0 30:0.0 31:0.0 32:0.0 33:0.0 34:1.0 35:0.0 36:0.0 37:0.0 38:0.0 39:1.0 40:0.0 41:0.0 42:0.0 43:0.0 44:1.0 45:1.0 46:0.0 47:0.0 48:1.0 49:1.0 50:1.0 51:0.0 52:0.0 53:0.0 54:1.0 55:1.0 56:1.0 57:1.0 58:1.0 59:1.0 60:1.0 
-1.0 -0.0 0.20561626239807404 0.0 1.0 0.0 0.0 1.0 0.0 1:0.0 2:1.0 3:1.0 4:1.0 5:1.0 6:0.0 7:1.0 8:0.0 9:0.0 10:0.0 11:0.0 12:1.0 13:1.0 14:0.0 15:0.0 16:0.0 17:0.0 18:1.0 19:0.0 20:0.0 21:0.0 22:0.0 23:0.0 24:1.0 25:0.0 26:0.0 27:0.0 28:0.0 29:1.0 30:0.0 31:0.0 32:0.0 33:0.0 34:1.0 35:0.0 36:0.0 37:1.0 38:0.0 39:1.0 40:1.0 41:0.0 42:0.0 43:0.0 44:1.0 45:0.0 46:0.0 47:0.0 48:0.0 49:1.0 50:0.0 51:0.0 52:0.0 53:0.0 54:1.0 55:1.0 56:1.0 57:1.0 58:1.0 59:1.0 60:1.0 
-1.0 -0.0 0.6881863554067702 0.09638865448972132 0.05937504798032987 0.45272490939071924 0.593611879823958 0.0 1.0 1:1.0 2:1.0 3:1.0 4:1.0 5:1.0 6:0.0 7:1.0 8:0.0 9:0.0 10:0.0 11:0.0 12:1.0 13:1.0 14:0.0 15:0.0 16:0.0 17:0.0 18:1.0 19:0.0 20:0.0 21:0.0 22:0.0 23:0.0 24:1.0 25:0.0 26:0.0 27:0.0 28:0.0 29:1.0 30:0.0 31:0.0 32:0.0 33:0.0 34:1.0 35:0.0 36:1.0 37:0.0 38:0.0 39:1.0 40:1.0 41:0.0 42:0.0 43:0.0 44:1.0 45:0.0 46:0.0 47:0.0 48:0.0 49:1.0 50:0.0 51:0.0 52:0.0 53:0.0 54:1.0 55:1.0 56:1.0 57:1.0 58:1.0 59:1.0 60:1.0 
-1.0 -1.0 1.0 1.0 1.0 1.0 1.0 1.0 1.0 1:0.0 2:1.0 3:1.0 4:1.0 5:1.0 6:0.0 7:1.0 8:0.0 9:0.0 10:1.0 11:0.0 12:1.0 13:1.0 14:0.0 15:0.0 16:0.0 17:0.0 18:1.0 19:0.0 20:0.0 21:0.0 22:0.0 23:1.0 24:0.0 25:0.0 26:0.0 27:1.0 28:1.0 29:0.0 30:0.0 31:0.0 32:0.0 33:0.0 34:0.0 35:1.0 36:0.0 37:0.0 38:0.0 39:0.0 40:0.0 41:0.0 42:1.0 43:1.0 44:0.0 45:0.0 46:0.0 47:0.0 48:1.0 49:1.0 50:0.0 51:0.0 52:0.0 53:0.0 54:1.0 55:0.0 56:1.0 57:1.0 58:1.0 59:1.0 60:0.0 
-0.0 -0.0 0.4262076869027373 0.13797820414137948 0.0 0.5377019493300051 0.0 0.0 0.0 1:0.0 2:1.0 3:1.0 4:1.0 5:1.0 6:0.0 7:1.0 8:0.0 9:0.0 10:0.0 11:0.0 12:1.0 13:1.0 14:0.0 15:0.0 16:0.0 17:1.0 18:1.0 19:0.0 20:0.0 21:0.0 22:0.0 23:0.0 24:1.0 25:0.0 26:0.0 27:0.0 28:0.0 29:1.0 30:0.0 31:0.0 32:0.0 33:0.0 34:1.0 35:0.0 36:0.0 37:1.0 38:0.0 39:1.0 40:0.0 41:0.0 42:0.0 43:0.0 44:1.0 45:0.0 46:0.0 47:0.0 48:0.0 49:1.0 50:0.0 51:0.0 52:0.0 53:0.0 54:1.0 55:1.0 56:1.0 57:1.0 58:1.0 59:1.0 60:1.0 
-0.0 -0.0 0.32078341882217976 1.0 0.0 0.0 0.0 0.0933540351674196 0.0 1:0.0 2:1.0 3:1.0 4:1.0 5:1.0 6:0.0 7:1.0 8:0.0 9:0.0 10:0.0 11:0.0 12:1.0 13:1.0 14:0.0 15:0.0 16:0.0 17:0.0 18:1.0 19:0.0 20:0.0 21:0.0 22:0.0 23:0.0 24:1.0 25:0.0 26:0.0 27:0.0 28:0.0 29:1.0 30:0.0 31:0.0 32:0.0 33:0.0 34:1.0 35:0.0 36:0.0 37:0.0 38:0.0 39:1.0 40:0.0 41:1.0 42:0.0 43:0.0 44:1.0 45:0.0 46:0.0 47:0.0 48:1.0 49:1.0 50:0.0 51:0.0 52:0.0 53:0.0 54:1.0 55:1.0 56:1.0 57:1.0 58:1.0 59:1.0 60:1.0 
-1.0 -0.0 0.3678522266342411 0.0 0.0 0.5396043448452521 0.42307465823423784 0.0 1.0 1:0.0 2:1.0 3:1.0 4:1.0 5:1.0 6:0.0 7:1.0 8:0.0 9:0.0 10:0.0 11:0.0 12:1.0 13:1.0 14:0.0 15:0.0 16:0.0 17:0.0 18:1.0 19:1.0 20:0.0 21:0.0 22:1.0 23:0.0 24:1.0 25:0.0 26:0.0 27:0.0 28:0.0 29:1.0 30:0.0 31:0.0 32:0.0 33:0.0 34:1.0 35:0.0 36:0.0 37:0.0 38:0.0 39:1.0 40:0.0 41:0.0 42:0.0 43:0.0 44:1.0 45:0.0 46:0.0 47:0.0 48:0.0 49:1.0 50:0.0 51:0.0 52:0.0 53:0.0 54:1.0 55:1.0 56:1.0 57:1.0 58:1.0 59:1.0 60:1.0 
-0.0 -0.0 0.6198590152941189 0.0 0.05170364309559618 0.0 0.8801447391322225 1.0 0.0 1:0.0 2:1.0 3:1.0 4:1.0 5:1.0 6:0.0 7:1.0 8:0.0 9:0.0 10:0.0 11:0.0 12:1.0 13:1.0 14:0.0 15:0.0 16:0.0 17:0.0 18:1.0 19:0.0 20:0.0 21:0.0 22:0.0 23:0.0 24:1.0 25:0.0 26:0.0 27:0.0 28:0.0 29:1.0 30:0.0 31:0.0 32:1.0 33:0.0 34:1.0 35:0.0 36:0.0 37:0.0 38:1.0 39:1.0 40:0.0 41:0.0 42:0.0 43:0.0 44:1.0 45:0.0 46:0.0 47:0.0 48:0.0 49:1.0 50:0.0 51:0.0 52:0.0 53:0.0 54:1.0 55:1.0 56:1.0 57:1.0 58:1.0 59:1.0 60:1.0 
-0.0 -1.0 0.06793634992645733 1.0 0.0 0.0 0.0 0.0 0.0 1:0.0 2:1.0 3:1.0 4:1.0 5:1.0 6:0.0 7:1.0 8:0.0 9:0.0 10:0.0 11:0.0 12:1.0 13:1.0 14:0.0 15:0.0 16:0.0 17:0.0 18:1.0 19:0.0 20:0.0 21:0.0 22:0.0 23:0.0 24:1.0 25:0.0 26:0.0 27:1.0 28:0.0 29:1.0 30:0.0 31:0.0 32:0.0 33:0.0 34:1.0 35:0.0 36:0.0 37:0.0 38:0.0 39:1.0 40:0.0 41:0.0 42:0.0 43:0.0 44:1.0 45:1.0 46:0.0 47:0.0 48:0.0 49:1.0 50:0.0 51:0.0 52:0.0 53:0.0 54:1.0 55:1.0 56:1.0 57:1.0 58:1.0 59:1.0 60:1.0 
-0.25543339656650726 -0.18452107239510296 0.3164066170999882 1.0 0.0 0.0 0.0 0.7592698078270925 0.12538629002794482 1:0.0 2:1.0 3:1.0 4:1.0 5:1.0 6:0.0 7:1.0 8:0.0 9:1.0 10:0.0 11:0.0 12:1.0 13:1.0 14:1.0 15:0.0 16:0.0 17:0.0 18:1.0 19:0.0 20:0.0 21:0.0 22:0.0 23:0.0 24:1.0 25:0.0 26:0.0 27:0.0 28:0.0 29:1.0 30:0.0 31:0.0 32:0.0 33:0.0 34:1.0 35:0.0 36:0.0 37:0.0 38:0.0 39:1.0 40:0.0 41:0.0 42:0.0 43:1.0 44:1.0 45:0.0 46:0.0 47:0.0 48:0.0 49:1.0 50:0.0 51:0.0 52:0.0 53:0.0 54:1.0 55:1.0 56:1.0 57:1.0 58:1.0 59:1.0 60:1.0 
-0.0 -0.0 0.0 0.0 0.0 0.6121301624260744 0.0 0.0 0.22775504425993828 1:0.0 2:1.0 3:1.0 4:1.0 5:1.0 6:1.0 7:1.0 8:0.0 9:0.0 10:0.0 11:0.0 12:1.0 13:1.0 14:0.0 15:0.0 16:0.0 17:0.0 18:1.0 19:0.0 20:0.0 21:0.0 22:0.0 23:0.0 24:1.0 25:0.0 26:0.0 27:0.0 28:0.0 29:1.0 30:0.0 31:0.0 32:0.0 33:0.0 34:1.0 35:0.0 36:0.0 37:0.0 38:0.0 39:1.0 40:0.0 41:0.0 42:0.0 43:0.0 44:1.0 45:0.0 46:0.0 47:0.0 48:0.0 49:1.0 50:0.0 51:0.0 52:0.0 53:0.0 54:1.0 55:1.0 56:1.0 57:1.0 58:1.0 59:1.0 60:1.0 
-0.774988676875675 -0.22754038379465796 0.43197156590074637 1.0 1.0 0.0 0.05216344577134702 1.0 0.8605816829710109 1:0.0 2:1.0 3:1.0 4:1.0 5:1.0 6:0.0 7:1.0 8:0.0 9:0.0 10:0.0 11:0.0 12:1.0 13:1.0 14:0.0 15:1.0 16:0.0 17:0.0 18:1.0 19:0.0 20:0.0 21:0.0 22:1.0 23:0.0 24:1.0 25:0.0 26:0.0 27:0.0 28:0.0 29:1.0 30:0.0 31:0.0 32:0.0 33:0.0 34:1.0 35:1.0 36:0.0 37:0.0 38:0.0 39:1.0 40:0.0 41:0.0 42:1.0 43:0.0 44:1.0 45:0.0 46:0.0 47:0.0 48:0.0 49:1.0 50:0.0 51:0.0 52:0.0 53:0.0 54:1.0 55:1.0 56:1.0 57:1.0 58:1.0 59:1.0 60:1.0 
-0.0 -0.0 0.0 0.0 0.0 0.18070437047971324 0.0 0.0 0.0 1:1.0 2:1.0 3:1.0 4:1.0 5:1.0 6:0.0 7:1.0 8:0.0 9:0.0 10:0.0 11:0.0 12:1.0 13:1.0 14:0.0 15:0.0 16:0.0 17:0.0 18:1.0 19:0.0 20:0.0 21:0.0 22:0.0 23:0.0 24:1.0 25:0.0 26:0.0 27:0.0 28:0.0 29:1.0 30:0.0 31:0.0 32:0.0 33:0.0 34:1.0 35:0.0 36:0.0 37:0.0 38:0.0 39:1.0 40:0.0 41:0.0 42:0.0 43:0.0 44:1.0 45:0.0 46:0.0 47:0.0 48:0.0 49:1.0 50:0.0 51:0.0 52:0.0 53:0.0 54:1.0 55:1.0 56:1.0 57:1.0 58:1.0 59:1.0 60:1.0 
-0.0 -0.0 0.20009665959457917 0.0 0.0 0.0 0.4195910127044978 0.5567680792989254 0.0 1:0.0 2:1.0 3:1.0 4:1.0 5:1.0 6:0.0 7:1.0 8:0.0 9:0.0 10:0.0 11:0.0 12:1.0 13:1.0 14:0.0 15:0.0 16:0.0 17:0.0 18:1.0 19:1.0 20:0.0 21:0.0 22:0.0 23:0.0 24:1.0 25:0.0 26:0.0 27:0.0 28:0.0 29:1.0 30:0.0 31:0.0 32:0.0 33:0.0 34:1.0 35:0.0 36:0.0 37:0.0 38:0.0 39:1.0 40:0.0 41:0.0 42:0.0 43:0.0 44:1.0 45:0.0 46:0.0 47:0.0 48:0.0 49:1.0 50:0.0 51:0.0 52:0.0 53:0.0 54:1.0 55:1.0 56:1.0 57:1.0 58:1.0 59:1.0 60:1.0 
-0.0 -0.7178850484379103 0.0 0.0 0.0 0.16058027630414923 0.0 0.0 0.0 1:0.0 2:1.0 3:1.0 4:1.0 5:1.0 6:0.0 7:1.0 8:0.0 9:0.0 10:0.0 11:0.0 12:1.0 13:1.0 14:0.0 15:0.0 16:0.0 17:0.0 18:1.0 19:0.0 20:0.0 21:0.0 22:0.0 23:0.0 24:1.0 25:0.0 26:0.0 27:0.0 28:0.0 29:1.0 30:0.0 31:0.0 32:0.0 33:1.0 34:1.0 35:0.0 36:0.0 37:0.0 38:0.0 39:1.0 40:0.0 41:0.0 42:0.0 43:0.0 44:1.0 45:0.0 46:0.0 47:0.0 48:0.0 49:1.0 50:0.0 51:0.0 52:0.0 53:0.0 54:1.0 55:1.0 56:1.0 57:1.0 58:1.0 59:1.0 60:1.0 
-0.0 -0.0 0.0 0.0 0.04093752537210305 0.0 0.0 0.5690659757768082 0.0 1:0.0 2:1.0 3:1.0 4:1.0 5:1.0 6:0.0 7:1.0 8:0.0 9:0.0 10:1.0 11:0.0 12:1.0 13:1.0 14:0.0 15:0.0 16:0.0 17:0.0 18:1.0 19:1.0 20:0.0 21:0.0 22:0.0 23:0.0 24:1.0 25:0.0 26:0.0 27:0.0 28:0.0 29:1.0 30:0.0 31:0.0 32:0.0 33:0.0 34:1.0 35:0.0 36:0.0 37:0.0 38:0.0 39:1.0 40:0.0 41:0.0 42:0.0 43:0.0 44:1.0 45:0.0 46:0.0 47:0.0 48:0.0 49:1.0 50:0.0 51:0.0 52:0.0 53:0.0 54:1.0 55:1.0 56:1.0 57:1.0 58:1.0 59:1.0 60:1.0 
-0.0 -0.0 0.0 1.0 0.0 0.0 0.0 0.0 0.0 1:0.0 2:1.0 3:1.0 4:1.0 5:1.0 6:0.0 7:1.0 8:0.0 9:0.0 10:1.0 11:0.0 12:1.0 13:1.0 14:0.0 15:0.0 16:0.0 17:0.0 18:1.0 19:0.0 20:0.0 21:0.0 22:0.0 23:0.0 24:1.0 25:0.0 26:0.0 27:0.0 28:0.0 29:1.0 30:0.0 31:0.0 32:0.0 33:0.0 34:1.0 35:1.0 36:0.0 37:0.0 38:0.0 39:1.0 40:0.0 41:0.0 42:0.0 43:0.0 44:1.0 45:0.0 46:0.0 47:0.0 48:0.0 49:1.0 50:0.0 51:0.0 52:0.0 53:0.0 54:1.0 55:1.0 56:1.0 57:1.0 58:1.0 59:1.0 60:1.0 
-0.0 -0.0 0.0 0.09747278117795197 0.05343582635124422 0.0 0.0 0.4774699070232823 0.35485129765684653 1:0.0 2:1.0 3:1.0 4:1.0 5:1.0 6:0.0 7:1.0 8:0.0 9:0.0 10:0.0 11:0.0 12:1.0 13:1.0 14:0.0 15:0.0 16:0.0 17:0.0 18:1.0 19:0.0 20:1.0 21:0.0 22:0.0 23:0.0 24:1.0 25:0.0 26:1.0 27:0.0 28:0.0 29:1.0 30:0.0 31:0.0 32:0.0 33:0.0 34:1.0 35:0.0 36:0.0 37:0.0 38:0.0 39:1.0 40:0.0 41:0.0 42:0.0 43:0.0 44:1.0 45:0.0 46:0.0 47:0.0 48:0.0 49:1.0 50:0.0 51:0.0 52:0.0 53:0.0 54:1.0 55:1.0 56:1.0 57:1.0 58:1.0 59:1.0 60:1.0 
-0.0 -0.5579792780766781 -0.0 0.3601626001576874 0.0 0.3108285459261681 0.5174398680211508 0.8886386022252266 0.0 1:0.0 2:0.0 3:1.0 4:1.0 5:1.0 6:0.0 7:0.0 8:1.0 9:1.0 10:0.0 11:1.0 12:1.0 13:1.0 14:0.0 15:0.0 16:0.0 17:0.0 18:0.0 19:1.0 20:0.0 21:0.0 22:0.0 23:0.0 24:0.0 25:1.0 26:0.0 27:1.0 28:1.0 29:1.0 30:0.0 31:1.0 32:1.0 33:0.0 34:0.0 35:0.0 36:1.0 37:1.0 38:0.0 39:0.0 40:0.0 41:0.0 42:1.0 43:1.0 44:0.0 45:0.0 46:0.0 47:0.0 48:1.0 49:1.0 50:0.0 51:0.0 52:0.0 53:0.0 54:1.0 55:0.0 56:1.0 57:1.0 58:1.0 59:1.0 60:0.0 
-0.5668484458957531 -0.0 -0.8236118709027781 1.0 0.6517115916585772 0.0 0.5565878194469748 1.0 0.0 1:0.0 2:0.0 3:1.0 4:1.0 5:1.0 6:0.0 7:0.0 8:1.0 9:0.0 10:0.0 11:0.0 12:1.0 13:1.0 14:0.0 15:0.0 16:0.0 17:0.0 18:1.0 19:1.0 20:0.0 21:0.0 22:0.0 23:0.0 24:0.0 25:1.0 26:0.0 27:1.0 28:1.0 29:1.0 30:0.0 31:1.0 32:1.0 33:0.0 34:0.0 35:1.0 36:1.0 37:1.0 38:0.0 39:0.0 40:0.0 41:0.0 42:1.0 43:1.0 44:0.0 45:0.0 46:1.0 47:0.0 48:1.0 49:1.0 50:0.0 51:0.0 52:1.0 53:0.0 54:1.0 55:0.0 56:1.0 57:1.0 58:1.0 59:1.0 60:0.0 
-0.0 -0.0 -0.3542681187097196 0.0 0.0 0.31136477523798195 0.0 0.0 0.0 1:1.0 2:0.0 3:1.0 4:1.0 5:1.0 6:0.0 7:0.0 8:1.0 9:0.0 10:0.0 11:0.0 12:1.0 13:1.0 14:0.0 15:0.0 16:0.0 17:0.0 18:0.0 19:1.0 20:0.0 21:0.0 22:0.0 23:0.0 24:0.0 25:1.0 26:0.0 27:1.0 28:1.0 29:1.0 30:0.0 31:1.0 32:1.0 33:0.0 34:0.0 35:0.0 36:1.0 37:1.0 38:0.0 39:0.0 40:0.0 41:0.0 42:1.0 43:1.0 44:0.0 45:0.0 46:0.0 47:0.0 48:1.0 49:1.0 50:0.0 51:0.0 52:0.0 53:0.0 54:1.0 55:0.0 56:1.0 57:1.0 58:1.0 59:1.0 60:1.0 
-0.0 -0.15646881157113063 -0.34980518838480223 0.0063329267653151125 0.46285592668336123 0.0 0.0 1.0 0.5916896531147723 1:0.0 2:0.0 3:1.0 4:1.0 5:1.0 6:0.0 7:0.0 8:1.0 9:0.0 10:0.0 11:0.0 12:1.0 13:1.0 14:1.0 15:0.0 16:0.0 17:0.0 18:0.0 19:1.0 20:0.0 21:0.0 22:0.0 23:0.0 24:0.0 25:1.0 26:1.0 27:1.0 28:1.0 29:1.0 30:0.0 31:1.0 32:1.0 33:0.0 34:0.0 35:0.0 36:1.0 37:1.0 38:0.0 39:0.0 40:0.0 41:1.0 42:1.0 43:1.0 44:0.0 45:0.0 46:0.0 47:0.0 48:1.0 49:1.0 50:0.0 51:0.0 52:0.0 53:0.0 54:1.0 55:0.0 56:1.0 57:1.0 58:1.0 59:1.0 60:1.0 
-0.0 -0.0 -0.0 0.0 0.0 0.0 0.5201482121612215 0.0 0.0 1:0.0 2:0.0 3:1.0 4:1.0 5:1.0 6:0.0 7:0.0 8:1.0 9:0.0 10:0.0 11:0.0 12:1.0 13:1.0 14:0.0 15:0.0 16:0.0 17:0.0 18:0.0 19:1.0 20:0.0 21:0.0 22:0.0 23:0.0 24:0.0 25:1.0 26:0.0 27:1.0 28:1.0 29:1.0 30:0.0 31:1.0 32:1.0 33:0.0 34:0.0 35:0.0 36:1.0 37:1.0 38:0.0 39:0.0 40:0.0 41:0.0 42:1.0 43:1.0 44:0.0 45:0.0 46:0.0 47:0.0 48:1.0 49:1.0 50:0.0 51:0.0 52:0.0 53:1.0 54:1.0 55:0.0 56:1.0 57:1.0 58:1.0 59:1.0 60:0.0 
-1.0 -0.0 -0.38626567272060897 1.0 0.7084376471692437 0.6182555825363667 0.0 1.0 1.0 1:0.0 2:1.0 3:1.0 4:1.0 5:1.0 6:0.0 7:0.0 8:1.0 9:0.0 10:0.0 11:0.0 12:1.0 13:1.0 14:0.0 15:0.0 16:1.0 17:0.0 18:0.0 19:1.0 20:0.0 21:0.0 22:1.0 23:0.0 24:0.0 25:1.0 26:0.0 27:1.0 28:1.0 29:1.0 30:0.0 31:1.0 32:1.0 33:0.0 34:0.0 35:0.0 36:1.0 37:1.0 38:0.0 39:0.0 40:0.0 41:0.0 42:1.0 43:1.0 44:0.0 45:0.0 46:0.0 47:0.0 48:1.0 49:1.0 50:0.0 51:0.0 52:0.0 53:0.0 54:1.0 55:0.0 56:1.0 57:1.0 58:1.0 59:1.0 60:0.0 
-0.0 -0.0 -0.0 0.0 0.0 0.0 0.0 0.0 1.0 1:1.0 2:0.0 3:1.0 4:1.0 5:1.0 6:0.0 7:0.0 8:1.0 9:0.0 10:0.0 11:0.0 12:1.0 13:1.0 14:0.0 15:0.0 16:0.0 17:0.0 18:0.0 19:1.0 20:0.0 21:0.0 22:0.0 23:0.0 24:0.0 25:1.0 26:0.0 27:1.0 28:1.0 29:1.0 30:0.0 31:1.0 32:1.0 33:0.0 34:0.0 35:0.0 36:1.0 37:1.0 38:0.0 39:0.0 40:0.0 41:0.0 42:1.0 43:1.0 44:0.0 45:0.0 46:0.0 47:0.0 48:1.0 49:1.0 50:0.0 51:0.0 52:0.0 53:0.0 54:1.0 55:0.0 56:1.0 57:1.0 58:1.0 59:1.0 60:0.0 
-1.0 -0.5534591686291016 -0.6003912442969882 0.0 0.870295046060635 0.44287048941063617 0.0 0.2188465373607998 0.0 1:0.0 2:0.0 3:1.0 4:1.0 5:1.0 6:0.0 7:0.0 8:1.0 9:0.0 10:0.0 11:0.0 12:1.0 13:1.0 14:0.0 15:0.0 16:0.0 17:0.0 18:0.0 19:1.0 20:0.0 21:0.0 22:0.0 23:0.0 24:0.0 25:1.0 26:0.0 27:1.0 28:1.0 29:1.0 30:0.0 31:1.0 32:1.0 33:0.0 34:0.0 35:0.0 36:1.0 37:1.0 38:0.0 39:1.0 40:1.0 41:0.0 42:1.0 43:1.0 44:0.0 45:0.0 46:0.0 47:0.0 48:1.0 49:1.0 50:0.0 51:0.0 52:0.0 53:0.0 54:1.0 55:0.0 56:1.0 57:1.0 58:1.0 59:1.0 60:0.0 
-0.2598054903832908 -0.0 -0.36191707247458144 1.0 0.5696957716804999 0.7643364777662296 0.6626371249617566 1.0 1.0 1:0.0 2:1.0 3:1.0 4:1.0 5:1.0 6:1.0 7:0.0 8:1.0 9:0.0 10:0.0 11:0.0 12:1.0 13:1.0 14:0.0 15:0.0 16:0.0 17:0.0 18:0.0 19:1.0 20:0.0 21:0.0 22:0.0 23:0.0 24:0.0 25:1.0 26:0.0 27:1.0 28:1.0 29:1.0 30:0.0 31:1.0 32:1.0 33:0.0 34:0.0 35:0.0 36:1.0 37:1.0 38:1.0 39:0.0 40:0.0 41:1.0 42:1.0 43:1.0 44:0.0 45:0.0 46:0.0 47:0.0 48:1.0 49:1.0 50:0.0 51:0.0 52:0.0 53:0.0 54:1.0 55:0.0 56:1.0 57:1.0 58:1.0 59:1.0 60:0.0 
-0.0 -0.0 -0.0 0.0 0.39841445618313903 0.0 0.0 0.0 0.0 1:0.0 2:0.0 3:1.0 4:1.0 5:1.0 6:0.0 7:0.0 8:1.0 9:0.0 10:0.0 11:0.0 12:1.0 13:1.0 14:0.0 15:0.0 16:0.0 17:0.0 18:0.0 19:1.0 20:0.0 21:0.0 22:0.0 23:0.0 24:0.0 25:1.0 26:0.0 27:1.0 28:1.0 29:1.0 30:0.0 31:1.0 32:1.0 33:0.0 34:0.0 35:0.0 36:1.0 37:1.0 38:0.0 39:0.0 40:0.0 41:0.0 42:1.0 43:1.0 44:0.0 45:0.0 46:0.0 47:0.0 48:1.0 49:1.0 50:1.0 51:0.0 52:1.0 53:0.0 54:1.0 55:0.0 56:1.0 57:1.0 58:1.0 59:1.0 60:1.0 
-0.0 -0.5530306562698856 -0.6719541651324477 1.0 0.0 0.0 0.0 0.7428097432717786 0.7623821164042662 1:0.0 2:0.0 3:1.0 4:1.0 5:1.0 6:0.0 7:0.0 8:1.0 9:0.0 10:0.0 11:0.0 12:1.0 13:1.0 14:0.0 15:0.0 16:0.0 17:0.0 18:0.0 19:1.0 20:0.0 21:0.0 22:0.0 23:1.0 24:0.0 25:1.0 26:0.0 27:1.0 28:1.0 29:1.0 30:0.0 31:1.0 32:1.0 33:0.0 34:0.0 35:0.0 36:1.0 37:1.0 38:0.0 39:0.0 40:0.0 41:0.0 42:1.0 43:1.0 44:0.0 45:0.0 46:0.0 47:0.0 48:1.0 49:1.0 50:0.0 51:0.0 52:0.0 53:0.0 54:1.0 55:1.0 56:1.0 57:1.0 58:1.0 59:1.0 60:0.0 
-1.0 -1.0 -1.0 1.0 0.0 0.6200940258574676 1.0 1.0 1.0 1:0.0 2:1.0 3:1.0 4:1.0 5:1.0 6:0.0 7:1.0 8:1.0 9:0.0 10:0.0 11:0.0 12:1.0 13:1.0 14:0.0 15:1.0 16:0.0 17:0.0 18:0.0 19:1.0 20:0.0 21:0.0 22:0.0 23:0.0 24:0.0 25:1.0 26:0.0 27:1.0 28:1.0 29:1.0 30:0.0 31:1.0 32:1.0 33:0.0 34:0.0 35:0.0 36:1.0 37:1.0 38:0.0 39:0.0 40:0.0 41:0.0 42:1.0 43:1.0 44:0.0 45:0.0 46:0.0 47:0.0 48:1.0 49:1.0 50:0.0 51:0.0 52:0.0 53:0.0 54:1.0 55:0.0 56:1.0 57:1.0 58:1.0 59:1.0 60:0.0 
-1.0 -0.0 -0.018096039080985706 0.0 0.0 0.0 0.5201482121612209 0.7692762657677117 0.0 1:0.0 2:0.0 3:1.0 4:1.0 5:1.0 6:0.0 7:0.0 8:1.0 9:0.0 10:0.0 11:0.0 12:1.0 13:1.0 14:0.0 15:0.0 16:0.0 17:0.0 18:0.0 19:1.0 20:0.0 21:0.0 22:0.0 23:0.0 24:0.0 25:1.0 26:0.0 27:1.0 28:1.0 29:1.0 30:0.0 31:1.0 32:1.0 33:0.0 34:1.0 35:0.0 36:1.0 37:1.0 38:0.0 39:0.0 40:0.0 41:0.0 42:1.0 43:1.0 44:0.0 45:0.0 46:0.0 47:0.0 48:1.0 49:1.0 50:0.0 51:0.0 52:0.0 53:0.0 54:1.0 55:0.0 56:1.0 57:1.0 58:1.0 59:1.0 60:0.0 
-0.7246159351317633 -0.0 -0.2848563229555446 1.0 0.0 0.0 0.5290427833648724 1.0 0.0 1:0.0 2:0.0 3:1.0 4:1.0 5:1.0 6:0.0 7:0.0 8:1.0 9:0.0 10:0.0 11:0.0 12:1.0 13:1.0 14:0.0 15:0.0 16:0.0 17:0.0 18:1.0 19:1.0 20:0.0 21:0.0 22:0.0 23:0.0 24:0.0 25:1.0 26:0.0 27:1.0 28:1.0 29:1.0 30:0.0 31:1.0 32:1.0 33:0.0 34:0.0 35:0.0 36:1.0 37:1.0 38:0.0 39:0.0 40:0.0 41:0.0 42:1.0 43:1.0 44:0.0 45:0.0 46:0.0 47:1.0 48:1.0 49:1.0 50:0.0 51:0.0 52:0.0 53:0.0 54:1.0 55:0.0 56:1.0 57:1.0 58:1.0 59:1.0 60:0.0 
-1.0 -0.6113366930530295 -0.0 0.0 0.0 0.10376194069482345 0.5142687882770776 0.0 0.0 1:0.0 2:0.0 3:1.0 4:1.0 5:1.0 6:0.0 7:0.0 8:1.0 9:0.0 10:0.0 11:0.0 12:1.0 13:1.0 14:0.0 15:0.0 16:0.0 17:0.0 18:0.0 19:1.0 20:0.0 21:0.0 22:0.0 23:0.0 24:0.0 25:1.0 26:0.0 27:1.0 28:1.0 29:1.0 30:0.0 31:1.0 32:1.0 33:1.0 34:0.0 35:0.0 36:1.0 37:1.0 38:0.0 39:0.0 40:0.0 41:0.0 42:1.0 43:1.0 44:0.0 45:0.0 46:0.0 47:0.0 48:1.0 49:1.0 50:0.0 51:0.0 52:0.0 53:0.0 54:1.0 55:0.0 56:1.0 57:1.0 58:1.0 59:1.0 60:0.0 
-0.0 -0.0 -0.0 0.0 0.0 0.0 0.0 0.0 0.08770828925187946 1:0.0 2:0.0 3:1.0 4:1.0 5:1.0 6:1.0 7:0.0 8:1.0 9:0.0 10:0.0 11:0.0 12:1.0 13:1.0 14:0.0 15:0.0 16:0.0 17:0.0 18:0.0 19:1.0 20:0.0 21:0.0 22:0.0 23:0.0 24:0.0 25:1.0 26:0.0 27:1.0 28:1.0 29:1.0 30:0.0 31:1.0 32:1.0 33:0.0 34:0.0 35:0.0 36:1.0 37:1.0 38:0.0 39:0.0 40:0.0 41:0.0 42:1.0 43:1.0 44:0.0 45:0.0 46:0.0 47:0.0 48:1.0 49:1.0 50:0.0 51:0.0 52:0.0 53:0.0 54:1.0 55:0.0 56:1.0 57:1.0 58:1.0 59:1.0 60:0.0 
-1.0 -0.0 -0.0 -0.5636432089743462 0.0 1.0 0.0 0.3611576519189932 1.0 1:0.0 2:1.0 3:1.0 4:1.0 5:1.0 6:0.0 7:1.0 8:0.0 9:0.0 10:0.0 11:0.0 12:1.0 13:1.0 14:0.0 15:0.0 16:0.0 17:0.0 18:1.0 19:0.0 20:0.0 21:0.0 22:1.0 23:1.0 24:0.0 25:0.0 26:0.0 27:1.0 28:1.0 29:0.0 30:0.0 31:0.0 32:0.0 33:0.0 34:0.0 35:1.0 36:0.0 37:0.0 38:0.0 39:0.0 40:0.0 41:0.0 42:1.0 43:1.0 44:0.0 45:0.0 46:0.0 47:0.0 48:1.0 49:1.0 50:0.0 51:0.0 52:0.0 53:0.0 54:1.0 55:0.0 56:1.0 57:1.0 58:1.0 59:1.0 60:0.0 
-0.0 -0.46762946029872343 -0.0 -0.0 0.0 0.0 0.0 0.16930312878679082 0.0 1:0.0 2:1.0 3:1.0 4:1.0 5:1.0 6:0.0 7:1.0 8:0.0 9:1.0 10:0.0 11:0.0 12:1.0 13:1.0 14:0.0 15:0.0 16:0.0 17:0.0 18:1.0 19:0.0 20:0.0 21:0.0 22:0.0 23:1.0 24:0.0 25:0.0 26:0.0 27:1.0 28:1.0 29:0.0 30:0.0 31:0.0 32:0.0 33:0.0 34:0.0 35:1.0 36:0.0 37:0.0 38:0.0 39:0.0 40:0.0 41:0.0 42:1.0 43:1.0 44:0.0 45:0.0 46:0.0 47:0.0 48:1.0 49:1.0 50:0.0 51:0.0 52:0.0 53:0.0 54:1.0 55:0.0 56:1.0 57:1.0 58:1.0 59:1.0 60:0.0 
-0.0 -0.0 -1.0 -0.0 0.0 0.0 0.0 0.30019133644020746 0.08873633041027007 1:0.0 2:1.0 3:1.0 4:1.0 5:1.0 6:0.0 7:1.0 8:0.0 9:0.0 10:0.0 11:0.0 12:1.0 13:1.0 14:0.0 15:0.0 16:0.0 17:0.0 18:1.0 19:0.0 20:0.0 21:0.0 22:0.0 23:1.0 24:0.0 25:0.0 26:0.0 27:1.0 28:1.0 29:0.0 30:0.0 31:0.0 32:0.0 33:0.0 34:0.0 35:1.0 36:0.0 37:0.0 38:0.0 39:0.0 40:0.0 41:0.0 42:1.0 43:1.0 44:1.0 45:0.0 46:0.0 47:0.0 48:1.0 49:1.0 50:0.0 51:0.0 52:0.0 53:0.0 54:1.0 55:0.0 56:1.0 57:1.0 58:1.0 59:1.0 60:0.0 
-0.0 -0.33219918631617384 -0.91174816208288 -1.0 0.14652032482521166 0.0 0.0 0.14223282914274749 0.4768915179021348 1:0.0 2:1.0 3:1.0 4:1.0 5:1.0 6:0.0 7:1.0 8:1.0 9:0.0 10:0.0 11:0.0 12:1.0 13:1.0 14:0.0 15:0.0 16:0.0 17:0.0 18:1.0 19:0.0 20:1.0 21:0.0 22:0.0 23:1.0 24:0.0 25:0.0 26:0.0 27:1.0 28:1.0 29:0.0 30:0.0 31:0.0 32:0.0 33:0.0 34:0.0 35:1.0 36:0.0 37:0.0 38:0.0 39:0.0 40:0.0 41:0.0 42:1.0 43:1.0 44:1.0 45:0.0 46:0.0 47:0.0 48:1.0 49:1.0 50:0.0 51:0.0 52:0.0 53:0.0 54:1.0 55:0.0 56:1.0 57:1.0 58:1.0 59:1.0 60:0.0 
-0.0 -0.0 -0.0 -0.0 0.0 0.0 0.0 1.0 0.08442590823897535 1:0.0 2:1.0 3:1.0 4:1.0 5:1.0 6:0.0 7:1.0 8:0.0 9:0.0 10:0.0 11:0.0 12:1.0 13:1.0 14:0.0 15:0.0 16:0.0 17:0.0 18:1.0 19:0.0 20:0.0 21:0.0 22:0.0 23:1.0 24:0.0 25:0.0 26:0.0 27:1.0 28:1.0 29:0.0 30:0.0 31:0.0 32:0.0 33:0.0 34:0.0 35:1.0 36:0.0 37:0.0 38:0.0 39:0.0 40:0.0 41:0.0 42:1.0 43:1.0 44:0.0 45:0.0 46:0.0 47:0.0 48:1.0 49:1.0 50:1.0 51:0.0 52:0.0 53:0.0 54:1.0 55:0.0 56:1.0 57:1.0 58:1.0 59:1.0 60:0.0 
-1.0 -0.8641099572293034 -1.0 -0.5463079423072058 0.08862285471197613 0.0 1.0 1.0 0.14228121994919746 1:0.0 2:1.0 3:1.0 4:1.0 5:1.0 6:0.0 7:1.0 8:0.0 9:0.0 10:0.0 11:0.0 12:1.0 13:1.0 14:0.0 15:0.0 16:0.0 17:0.0 18:1.0 19:0.0 20:0.0 21:0.0 22:0.0 23:1.0 24:0.0 25:0.0 26:0.0 27:1.0 28:1.0 29:0.0 30:0.0 31:0.0 32:0.0 33:0.0 34:1.0 35:1.0 36:0.0 37:0.0 38:0.0 39:0.0 40:0.0 41:0.0 42:1.0 43:1.0 44:0.0 45:0.0 46:0.0 47:0.0 48:1.0 49:1.0 50:0.0 51:0.0 52:0.0 53:0.0 54:1.0 55:1.0 56:1.0 57:1.0 58:1.0 59:1.0 60:0.0 
-1.0 -0.0 -1.0 -0.5478696417748473 0.0 0.0 0.5929384246893445 1.0 0.14139296678589328 1:0.0 2:1.0 3:1.0 4:1.0 5:1.0 6:0.0 7:1.0 8:0.0 9:0.0 10:0.0 11:0.0 12:1.0 13:1.0 14:0.0 15:0.0 16:1.0 17:0.0 18:1.0 19:0.0 20:0.0 21:0.0 22:0.0 23:1.0 24:1.0 25:0.0 26:0.0 27:1.0 28:1.0 29:0.0 30:0.0 31:0.0 32:0.0 33:0.0 34:0.0 35:1.0 36:0.0 37:0.0 38:0.0 39:0.0 40:0.0 41:0.0 42:1.0 43:1.0 44:0.0 45:0.0 46:0.0 47:0.0 48:1.0 49:1.0 50:0.0 51:0.0 52:0.0 53:0.0 54:1.0 55:0.0 56:1.0 57:1.0 58:1.0 59:1.0 60:0.0 
-0.4313998007761918 -0.0 -1.0 -0.0 0.0 0.0 1.0 1.0 0.0 1:0.0 2:1.0 3:1.0 4:1.0 5:1.0 6:0.0 7:1.0 8:0.0 9:0.0 10:0.0 11:0.0 12:1.0 13:1.0 14:0.0 15:0.0 16:0.0 17:0.0 18:1.0 19:0.0 20:0.0 21:0.0 22:0.0 23:1.0 24:1.0 25:0.0 26:0.0 27:1.0 28:1.0 29:0.0 30:0.0 31:0.0 32:0.0 33:0.0 34:0.0 35:1.0 36:0.0 37:0.0 38:0.0 39:0.0 40:0.0 41:0.0 42:1.0 43:1.0 44:0.0 45:0.0 46:0.0 47:0.0 48:1.0 49:1.0 50:0.0 51:0.0 52:0.0 53:0.0 54:1.0 55:0.0 56:1.0 57:1.0 58:1.0 59:1.0 60:0.0 
-0.0 -0.0 -0.0 -0.0 0.9851420201461094 0.0 0.0 0.0 0.0 1:0.0 2:1.0 3:1.0 4:1.0 5:1.0 6:0.0 7:1.0 8:0.0 9:0.0 10:1.0 11:0.0 12:1.0 13:1.0 14:0.0 15:0.0 16:1.0 17:0.0 18:1.0 19:0.0 20:0.0 21:0.0 22:0.0 23:1.0 24:0.0 25:0.0 26:0.0 27:1.0 28:1.0 29:0.0 30:0.0 31:0.0 32:0.0 33:0.0 34:0.0 35:1.0 36:0.0 37:0.0 38:0.0 39:0.0 40:0.0 41:0.0 42:1.0 43:1.0 44:0.0 45:0.0 46:0.0 47:0.0 48:1.0 49:1.0 50:0.0 51:0.0 52:0.0 53:0.0 54:1.0 55:0.0 56:1.0 57:1.0 58:1.0 59:1.0 60:0.0 
-0.0 -0.0 -0.0 -0.0 0.0 1.0 0.0 1.0 1.0 1:1.0 2:1.0 3:1.0 4:1.0 5:1.0 6:0.0 7:1.0 8:0.0 9:0.0 10:0.0 11:0.0 12:1.0 13:1.0 14:0.0 15:0.0 16:0.0 17:0.0 18:1.0 19:0.0 20:0.0 21:0.0 22:0.0 23:1.0 24:0.0 25:0.0 26:0.0 27:1.0 28:1.0 29:0.0 30:0.0 31:0.0 32:0.0 33:0.0 34:0.0 35:1.0 36:0.0 37:0.0 38:0.0 39:0.0 40:0.0 41:0.0 42:1.0 43:1.0 44:0.0 45:0.0 46:0.0 47:0.0 48:1.0 49:1.0 50:0.0 51:0.0 52:0.0 53:0.0 54:1.0 55:0.0 56:1.0 57:1.0 58:1.0 59:1.0 60:0.0 
-1.0 -0.495586842474785 -0.4200914777261727 -1.0 0.1902033660141061 0.0 0.9052612934859863 1.0 1.0 1:0.0 2:1.0 3:1.0 4:1.0 5:1.0 6:0.0 7:1.0 8:0.0 9:1.0 10:1.0 11:0.0 12:1.0 13:1.0 14:0.0 15:0.0 16:0.0 17:0.0 18:1.0 19:0.0 20:0.0 21:0.0 22:0.0 23:1.0 24:0.0 25:0.0 26:0.0 27:1.0 28:1.0 29:0.0 30:0.0 31:0.0 32:0.0 33:0.0 34:0.0 35:1.0 36:1.0 37:0.0 38:0.0 39:0.0 40:0.0 41:0.0 42:1.0 43:1.0 44:0.0 45:0.0 46:0.0 47:0.0 48:1.0 49:1.0 50:0.0 51:0.0 52:0.0 53:0.0 54:1.0 55:0.0 56:1.0 57:1.0 58:1.0 59:1.0 60:0.0 
-0.0 -0.0 -1.0 -0.0 0.0 0.0 0.0 0.0 0.0 1:0.0 2:1.0 3:1.0 4:1.0 5:1.0 6:0.0 7:1.0 8:0.0 9:0.0 10:0.0 11:0.0 12:1.0 13:1.0 14:0.0 15:0.0 16:0.0 17:0.0 18:1.0 19:0.0 20:0.0 21:0.0 22:0.0 23:1.0 24:0.0 25:0.0 26:0.0 27:1.0 28:1.0 29:0.0 30:0.0 31:0.0 32:0.0 33:0.0 34:0.0 35:1.0 36:0.0 37:0.0 38:0.0 39:0.0 40:0.0 41:0.0 42:1.0 43:1.0 44:0.0 45:0.0 46:0.0 47:0.0 48:1.0 49:1.0 50:0.0 51:0.0 52:0.0 53:0.0 54:1.0 55:0.0 56:1.0 57:1.0 58:1.0 59:1.0 60:1.0 
-0.0 -0.0 -0.0 -0.9393701542974969 1.0 0.0 0.0 0.6623465615302148 0.2548680886340683 1:0.0 2:1.0 3:1.0 4:1.0 5:1.0 6:0.0 7:1.0 8:0.0 9:0.0 10:0.0 11:0.0 12:1.0 13:1.0 14:0.0 15:0.0 16:0.0 17:0.0 18:1.0 19:0.0 20:0.0 21:0.0 22:0.0 23:1.0 24:0.0 25:0.0 26:0.0 27:1.0 28:1.0 29:0.0 30:0.0 31:0.0 32:0.0 33:0.0 34:0.0 35:1.0 36:0.0 37:0.0 38:0.0 39:0.0 40:0.0 41:1.0 42:1.0 43:1.0 44:0.0 45:0.0 46:1.0 47:0.0 48:1.0 49:1.0 50:0.0 51:0.0 52:0.0 53:0.0 54:1.0 55:0.0 56:1.0 57:1.0 58:1.0 59:1.0 60:0.0 
-0.0 -0.0 -0.0 -0.5829360522516219 0.0 0.0 0.0 0.3491673548019915 0.0 1:0.0 2:1.0 3:1.0 4:1.0 5:1.0 6:0.0 7:1.0 8:0.0 9:0.0 10:0.0 11:0.0 12:1.0 13:1.0 14:0.0 15:0.0 16:0.0 17:0.0 18:1.0 19:0.0 20:0.0 21:0.0 22:0.0 23:1.0 24:0.0 25:0.0 26:0.0 27:1.0 28:1.0 29:0.0 30:0.0 31:0.0 32:0.0 33:0.0 34:0.0 35:1.0 36:0.0 37:0.0 38:0.0 39:0.0 40:0.0 41:0.0 42:1.0 43:1.0 44:0.0 45:0.0 46:0.0 47:1.0 48:1.0 49:1.0 50:0.0 51:0.0 52:0.0 53:0.0 54:1.0 55:0.0 56:1.0 57:1.0 58:1.0 59:1.0 60:0.0 
-0.9565242854276216 -0.7200353887757747 -0.0 -0.0886481219151691 0.0 0.5337343861309148 0.0 1.0 1.0 1:0.0 2:1.0 3:1.0 4:1.0 5:1.0 6:0.0 7:1.0 8:0.0 9:0.0 10:0.0 11:0.0 12:1.0 13:1.0 14:0.0 15:0.0 16:0.0 17:1.0 18:1.0 19:0.0 20:0.0 21:1.0 22:0.0 23:1.0 24:0.0 25:0.0 26:0.0 27:1.0 28:1.0 29:0.0 30:0.0 31:0.0 32:0.0 33:0.0 34:0.0 35:1.0 36:0.0 37:0.0 38:0.0 39:0.0 40:0.0 41:0.0 42:1.0 43:1.0 44:0.0 45:0.0 46:0.0 47:0.0 48:1.0 49:1.0 50:0.0 51:0.0 52:0.0 53:0.0 54:1.0 55:0.0 56:1.0 57:1.0 58:1.0 59:1.0 60:0.0 
-0.0 -0.0 -1.0 -0.0977204054023153 0.3520518729630534 0.5337343861309146 0.0 0.43486423577498035 0.2952567242217402 1:0.0 2:1.0 3:1.0 4:1.0 5:1.0 6:0.0 7:1.0 8:0.0 9:0.0 10:0.0 11:0.0 12:1.0 13:1.0 14:0.0 15:0.0 16:0.0 17:1.0 18:1.0 19:0.0 20:0.0 21:0.0 22:0.0 23:1.0 24:0.0 25:0.0 26:0.0 27:1.0 28:1.0 29:0.0 30:0.0 31:0.0 32:0.0 33:0.0 34:0.0 35:1.0 36:0.0 37:0.0 38:0.0 39:0.0 40:0.0 41:0.0 42:1.0 43:1.0 44:0.0 45:0.0 46:0.0 47:0.0 48:1.0 49:1.0 50:0.0 51:0.0 52:0.0 53:0.0 54:1.0 55:0.0 56:1.0 57:1.0 58:1.0 59:1.0 60:1.0 
-0.0 -1.0 -0.0 -1.0 0.3721826257643912 0.7053045235579619 0.9052612934859863 1.0 0.2566877697406427 1:0.0 2:1.0 3:1.0 4:1.0 5:1.0 6:0.0 7:1.0 8:1.0 9:0.0 10:0.0 11:1.0 12:1.0 13:1.0 14:0.0 15:1.0 16:0.0 17:0.0 18:1.0 19:0.0 20:0.0 21:0.0 22:0.0 23:1.0 24:0.0 25:0.0 26:0.0 27:1.0 28:1.0 29:0.0 30:0.0 31:0.0 32:0.0 33:0.0 34:0.0 35:1.0 36:0.0 37:0.0 38:0.0 39:0.0 40:0.0 41:0.0 42:1.0 43:1.0 44:0.0 45:0.0 46:0.0 47:0.0 48:1.0 49:1.0 50:0.0 51:0.0 52:0.0 53:0.0 54:1.0 55:0.0 56:1.0 57:1.0 58:1.0 59:1.0 60:0.0 
-0.056386448610365146 -0.0 -0.0 -0.2263253861833747 -0.0 0.0 0.0 0.0 0.3743567018167069 1:0.0 2:0.0 3:0.0 4:1.0 5:0.0 6:0.0 7:0.0 8:0.0 9:0.0 10:1.0 11:0.0 12:0.0 13:0.0 14:0.0 15:1.0 16:1.0 17:0.0 18:0.0 19:0.0 20:1.0 21:0.0 22:1.0 23:0.0 24:0.0 25:1.0 26:0.0 27:0.0 28:1.0 29:0.0 30:0.0 31:1.0 32:0.0 33:0.0 34:1.0 35:0.0 36:1.0 37:1.0 38:1.0 39:1.0 40:1.0 41:1.0 42:1.0 43:1.0 44:0.0 45:0.0 46:1.0 47:0.0 48:0.0 49:0.0 50:0.0 51:0.0 52:1.0 53:0.0 54:0.0 55:0.0 56:0.0 57:1.0 58:1.0 59:1.0 60:1.0 
-0.5127264838239327 -0.0 -1.0 -0.3070196807586934 -0.8402816596255512 0.932537540435116 0.3448056125262038 0.40124280695681636 0.36266078567197846 1:0.0 2:0.0 3:0.0 4:1.0 5:0.0 6:1.0 7:0.0 8:0.0 9:0.0 10:1.0 11:0.0 12:1.0 13:0.0 14:0.0 15:1.0 16:1.0 17:1.0 18:1.0 19:0.0 20:1.0 21:0.0 22:1.0 23:0.0 24:0.0 25:1.0 26:0.0 27:0.0 28:1.0 29:0.0 30:0.0 31:1.0 32:0.0 33:0.0 34:1.0 35:0.0 36:0.0 37:1.0 38:1.0 39:1.0 40:1.0 41:1.0 42:1.0 43:0.0 44:0.0 45:0.0 46:1.0 47:0.0 48:0.0 49:0.0 50:0.0 51:0.0 52:1.0 53:0.0 54:0.0 55:0.0 56:0.0 57:1.0 58:1.0 59:1.0 60:1.0 
-0.0 -0.0 -0.0 -0.7971608750190374 -0.011985645980241598 0.0 0.16716966355151627 0.5430316831434576 0.0 1:0.0 2:0.0 3:0.0 4:1.0 5:0.0 6:0.0 7:0.0 8:0.0 9:0.0 10:1.0 11:0.0 12:0.0 13:0.0 14:0.0 15:1.0 16:1.0 17:0.0 18:0.0 19:0.0 20:1.0 21:0.0 22:1.0 23:0.0 24:0.0 25:1.0 26:0.0 27:0.0 28:1.0 29:0.0 30:0.0 31:1.0 32:1.0 33:0.0 34:1.0 35:0.0 36:0.0 37:1.0 38:1.0 39:1.0 40:1.0 41:1.0 42:1.0 43:1.0 44:0.0 45:0.0 46:1.0 47:0.0 48:0.0 49:0.0 50:0.0 51:0.0 52:1.0 53:0.0 54:0.0 55:0.0 56:0.0 57:1.0 58:1.0 59:1.0 60:1.0 
-1.0 -1.0 -1.0 -0.7121893212722654 -0.8416124761473602 1.0 1.0 0.706393735049745 0.85731229370639 1:0.0 2:0.0 3:1.0 4:1.0 5:1.0 6:0.0 7:0.0 8:0.0 9:0.0 10:1.0 11:1.0 12:0.0 13:0.0 14:0.0 15:1.0 16:1.0 17:0.0 18:0.0 19:0.0 20:1.0 21:0.0 22:1.0 23:0.0 24:0.0 25:1.0 26:0.0 27:0.0 28:1.0 29:0.0 30:0.0 31:1.0 32:0.0 33:1.0 34:1.0 35:0.0 36:0.0 37:1.0 38:1.0 39:1.0 40:1.0 41:1.0 42:1.0 43:0.0 44:0.0 45:0.0 46:1.0 47:0.0 48:0.0 49:0.0 50:0.0 51:0.0 52:1.0 53:0.0 54:0.0 55:0.0 56:0.0 57:1.0 58:1.0 59:1.0 60:1.0 
-0.0 -0.39269793146322135 -0.0 -0.0 -0.013202582823348677 0.2943686422156332 0.0 0.0 0.0 1:0.0 2:0.0 3:0.0 4:1.0 5:0.0 6:0.0 7:0.0 8:0.0 9:0.0 10:1.0 11:0.0 12:0.0 13:0.0 14:0.0 15:1.0 16:1.0 17:0.0 18:0.0 19:0.0 20:1.0 21:0.0 22:1.0 23:0.0 24:0.0 25:1.0 26:0.0 27:0.0 28:1.0 29:0.0 30:0.0 31:1.0 32:0.0 33:0.0 34:1.0 35:0.0 36:0.0 37:1.0 38:1.0 39:1.0 40:1.0 41:1.0 42:1.0 43:1.0 44:0.0 45:0.0 46:1.0 47:0.0 48:0.0 49:0.0 50:0.0 51:1.0 52:1.0 53:0.0 54:0.0 55:0.0 56:0.0 57:1.0 58:1.0 59:1.0 60:1.0 
-0.0 -0.0 -0.31064086381299405 -0.0 -0.10287136258910042 0.0 0.0 0.0 0.0 1:0.0 2:0.0 3:0.0 4:1.0 5:0.0 6:0.0 7:0.0 8:0.0 9:0.0 10:1.0 11:0.0 12:0.0 13:0.0 14:0.0 15:1.0 16:1.0 17:0.0 18:0.0 19:0.0 20:1.0 21:0.0 22:1.0 23:0.0 24:0.0 25:1.0 26:0.0 27:0.0 28:1.0 29:0.0 30:0.0 31:1.0 32:0.0 33:0.0 34:1.0 35:0.0 36:0.0 37:1.0 38:1.0 39:1.0 40:1.0 41:1.0 42:1.0 43:1.0 44:1.0 45:0.0 46:1.0 47:0.0 48:0.0 49:0.0 50:0.0 51:0.0 52:1.0 53:0.0 54:0.0 55:0.0 56:0.0 57:1.0 58:1.0 59:1.0 60:1.0 
-0.0 -0.3361871667784485 -0.0 -0.0 -0.0 0.0 0.0 0.0 0.0 1:0.0 2:0.0 3:0.0 4:1.0 5:0.0 6:0.0 7:0.0 8:0.0 9:1.0 10:1.0 11:0.0 12:0.0 13:0.0 14:0.0 15:1.0 16:1.0 17:0.0 18:0.0 19:0.0 20:1.0 21:0.0 22:1.0 23:0.0 24:0.0 25:1.0 26:1.0 27:0.0 28:1.0 29:0.0 30:0.0 31:1.0 32:0.0 33:0.0 34:1.0 35:0.0 36:0.0 37:1.0 38:1.0 39:1.0 40:1.0 41:1.0 42:1.0 43:0.0 44:0.0 45:0.0 46:1.0 47:0.0 48:0.0 49:0.0 50:0.0 51:0.0 52:1.0 53:0.0 54:0.0 55:0.0 56:0.0 57:1.0 58:1.0 59:1.0 60:1.0 
-0.0 -0.2991755618270796 -0.0 -0.0 -0.0 0.0 0.0 0.0 0.0 1:0.0 2:0.0 3:0.0 4:1.0 5:0.0 6:0.0 7:0.0 8:1.0 9:0.0 10:1.0 11:0.0 12:0.0 13:0.0 14:0.0 15:1.0 16:1.0 17:0.0 18:0.0 19:0.0 20:1.0 21:0.0 22:1.0 23:0.0 24:0.0 25:1.0 26:0.0 27:0.0 28:1.0 29:0.0 30:0.0 31:1.0 32:0.0 33:0.0 34:1.0 35:0.0 36:0.0 37:1.0 38:1.0 39:1.0 40:1.0 41:1.0 42:1.0 43:0.0 44:0.0 45:0.0 46:1.0 47:0.0 48:0.0 49:0.0 50:0.0 51:0.0 52:1.0 53:0.0 54:0.0 55:0.0 56:0.0 57:1.0 58:1.0 59:1.0 60:1.0 
-1.0 -0.8060701755474996 -0.8833670222483715 -0.6187151762020848 -0.6450439042234393 0.8279303258015338 1.0 0.9616272179000125 1.0 1:0.0 2:1.0 3:0.0 4:1.0 5:0.0 6:0.0 7:1.0 8:0.0 9:1.0 10:1.0 11:0.0 12:0.0 13:0.0 14:0.0 15:1.0 16:1.0 17:0.0 18:0.0 19:1.0 20:1.0 21:0.0 22:1.0 23:0.0 24:0.0 25:1.0 26:0.0 27:0.0 28:1.0 29:0.0 30:0.0 31:1.0 32:0.0 33:0.0 34:1.0 35:0.0 36:1.0 37:1.0 38:1.0 39:1.0 40:1.0 41:1.0 42:1.0 43:0.0 44:0.0 45:0.0 46:1.0 47:0.0 48:0.0 49:0.0 50:0.0 51:0.0 52:1.0 53:0.0 54:0.0 55:0.0 56:0.0 57:1.0 58:1.0 59:1.0 60:1.0 
-1.0 -0.18058638375304473 -0.3342115479189919 -1.0 -0.6797254330358066 0.1125509548029058 0.6269201241729645 0.7518212877194898 0.41875444501749365 1:0.0 2:0.0 3:0.0 4:1.0 5:0.0 6:0.0 7:0.0 8:0.0 9:0.0 10:1.0 11:0.0 12:0.0 13:1.0 14:0.0 15:1.0 16:1.0 17:0.0 18:0.0 19:1.0 20:1.0 21:0.0 22:1.0 23:0.0 24:0.0 25:1.0 26:0.0 27:1.0 28:1.0 29:0.0 30:0.0 31:1.0 32:0.0 33:0.0 34:1.0 35:0.0 36:0.0 37:1.0 38:1.0 39:1.0 40:1.0 41:1.0 42:1.0 43:0.0 44:0.0 45:0.0 46:1.0 47:0.0 48:0.0 49:0.0 50:0.0 51:0.0 52:1.0 53:0.0 54:0.0 55:0.0 56:0.0 57:1.0 58:1.0 59:1.0 60:1.0 
-0.0 -0.2991755618270799 -0.0 -0.0 -0.0 0.09513792279486309 0.0 0.0 0.0 1:0.0 2:0.0 3:0.0 4:1.0 5:0.0 6:0.0 7:0.0 8:0.0 9:0.0 10:1.0 11:0.0 12:0.0 13:0.0 14:0.0 15:1.0 16:1.0 17:0.0 18:0.0 19:0.0 20:1.0 21:0.0 22:1.0 23:0.0 24:0.0 25:1.0 26:0.0 27:0.0 28:1.0 29:0.0 30:0.0 31:1.0 32:0.0 33:0.0 34:1.0 35:0.0 36:0.0 37:1.0 38:1.0 39:1.0 40:1.0 41:1.0 42:1.0 43:0.0 44:0.0 45:1.0 46:1.0 47:0.0 48:0.0 49:0.0 50:0.0 51:0.0 52:1.0 53:0.0 54:0.0 55:0.0 56:0.0 57:1.0 58:1.0 59:1.0 60:1.0 
-0.0 -0.0 -0.10294238793526286 -0.0 -0.0 0.0 0.0 0.0 0.0 1:0.0 2:0.0 3:0.0 4:1.0 5:0.0 6:0.0 7:0.0 8:0.0 9:0.0 10:1.0 11:0.0 12:0.0 13:0.0 14:0.0 15:1.0 16:1.0 17:0.0 18:0.0 19:0.0 20:1.0 21:0.0 22:1.0 23:0.0 24:0.0 25:1.0 26:0.0 27:0.0 28:1.0 29:0.0 30:0.0 31:1.0 32:0.0 33:0.0 34:1.0 35:0.0 36:0.0 37:1.0 38:1.0 39:1.0 40:1.0 41:1.0 42:1.0 43:0.0 44:0.0 45:0.0 46:1.0 47:0.0 48:0.0 49:0.0 50:0.0 51:0.0 52:1.0 53:0.0 54:1.0 55:0.0 56:0.0 57:1.0 58:1.0 59:1.0 60:1.0 
-0.5313238931133446 -1.0 -0.9558278297876571 -0.710639090977208 -1.0 -0.5318186086787924 1.0 0.9070883789004822 1.0 1:1.0 2:1.0 3:1.0 4:1.0 5:1.0 6:1.0 7:1.0 8:0.0 9:0.0 10:0.0 11:1.0 12:0.0 13:1.0 14:0.0 15:0.0 16:0.0 17:1.0 18:0.0 19:0.0 20:0.0 21:0.0 22:1.0 23:0.0 24:0.0 25:0.0 26:0.0 27:0.0 28:1.0 29:0.0 30:0.0 31:0.0 32:0.0 33:1.0 34:0.0 35:0.0 36:0.0 37:0.0 38:0.0 39:1.0 40:0.0 41:0.0 42:0.0 43:0.0 44:0.0 45:1.0 46:0.0 47:0.0 48:0.0 49:0.0 50:0.0 51:1.0 52:0.0 53:1.0 54:0.0 55:0.0 56:0.0 57:1.0 58:1.0 59:0.0 60:0.0 
-0.0 -0.02642482604546636 -0.0 -0.0 -0.05355401106647044 -0.0 0.0 0.0 1.0 1:1.0 2:1.0 3:1.0 4:1.0 5:1.0 6:1.0 7:1.0 8:0.0 9:0.0 10:0.0 11:1.0 12:0.0 13:1.0 14:0.0 15:0.0 16:0.0 17:1.0 18:0.0 19:0.0 20:0.0 21:0.0 22:1.0 23:0.0 24:0.0 25:0.0 26:1.0 27:0.0 28:1.0 29:0.0 30:0.0 31:0.0 32:0.0 33:1.0 34:0.0 35:0.0 36:0.0 37:0.0 38:0.0 39:1.0 40:0.0 41:0.0 42:0.0 43:0.0 44:0.0 45:1.0 46:0.0 47:0.0 48:0.0 49:0.0 50:0.0 51:1.0 52:0.0 53:0.0 54:0.0 55:0.0 56:0.0 57:1.0 58:0.0 59:0.0 60:0.0 
-0.0 -0.33163174160309367 -0.5819459677565348 -1.0 -0.0 -0.0 1.0 1.0 0.0 1:1.0 2:1.0 3:1.0 4:1.0 5:1.0 6:1.0 7:1.0 8:0.0 9:0.0 10:0.0 11:1.0 12:0.0 13:1.0 14:0.0 15:0.0 16:0.0 17:1.0 18:0.0 19:0.0 20:0.0 21:0.0 22:1.0 23:0.0 24:0.0 25:0.0 26:0.0 27:0.0 28:1.0 29:1.0 30:0.0 31:0.0 32:1.0 33:1.0 34:0.0 35:0.0 36:0.0 37:0.0 38:0.0 39:1.0 40:0.0 41:0.0 42:0.0 43:0.0 44:0.0 45:1.0 46:0.0 47:0.0 48:0.0 49:0.0 50:1.0 51:1.0 52:0.0 53:0.0 54:0.0 55:0.0 56:0.0 57:1.0 58:0.0 59:0.0 60:0.0 
-0.35527310943772683 -1.0 -0.40974443890059054 -0.0 -0.1905181722880569 -0.0 0.30631049104977365 0.34197322670557895 0.0 1:1.0 2:1.0 3:1.0 4:1.0 5:1.0 6:1.0 7:1.0 8:0.0 9:1.0 10:0.0 11:1.0 12:0.0 13:1.0 14:0.0 15:0.0 16:0.0 17:1.0 18:0.0 19:0.0 20:0.0 21:0.0 22:1.0 23:0.0 24:1.0 25:0.0 26:0.0 27:0.0 28:1.0 29:0.0 30:0.0 31:0.0 32:0.0 33:1.0 34:0.0 35:0.0 36:0.0 37:0.0 38:0.0 39:1.0 40:0.0 41:0.0 42:0.0 43:0.0 44:0.0 45:1.0 46:0.0 47:0.0 48:0.0 49:0.0 50:0.0 51:1.0 52:0.0 53:0.0 54:0.0 55:0.0 56:0.0 57:1.0 58:0.0 59:0.0 60:0.0 
-0.3619997941777087 -0.0 -0.4080275963175792 -0.0 -0.18835964802290345 -0.5213808515567835 0.29757663359669884 0.3419732267055785 0.0 1:1.0 2:1.0 3:1.0 4:1.0 5:1.0 6:1.0 7:1.0 8:0.0 9:0.0 10:0.0 11:1.0 12:0.0 13:1.0 14:0.0 15:0.0 16:0.0 17:1.0 18:0.0 19:0.0 20:1.0 21:0.0 22:1.0 23:0.0 24:1.0 25:0.0 26:0.0 27:0.0 28:1.0 29:0.0 30:0.0 31:0.0 32:0.0 33:1.0 34:0.0 35:0.0 36:0.0 37:0.0 38:0.0 39:1.0 40:0.0 41:0.0 42:0.0 43:0.0 44:0.0 45:1.0 46:0.0 47:0.0 48:0.0 49:0.0 50:0.0 51:1.0 52:0.0 53:0.0 54:0.0 55:0.0 56:0.0 57:1.0 58:0.0 59:0.0 60:0.0 
-0.0 -0.0 -0.32708824563956934 -0.22204705663275287 -0.27558631791581584 -0.5215171477247682 0.050036412299619956 0.027428134835529784 0.0 1:1.0 2:1.0 3:1.0 4:1.0 5:1.0 6:1.0 7:1.0 8:0.0 9:0.0 10:0.0 11:1.0 12:0.0 13:1.0 14:0.0 15:0.0 16:0.0 17:1.0 18:0.0 19:0.0 20:0.0 21:0.0 22:1.0 23:0.0 24:0.0 25:0.0 26:0.0 27:0.0 28:1.0 29:1.0 30:0.0 31:0.0 32:0.0 33:1.0 34:0.0 35:0.0 36:0.0 37:0.0 38:0.0 39:1.0 40:0.0 41:0.0 42:0.0 43:0.0 44:0.0 45:1.0 46:1.0 47:0.0 48:0.0 49:0.0 50:0.0 51:1.0 52:0.0 53:0.0 54:0.0 55:0.0 56:0.0 57:1.0 58:0.0 59:0.0 60:0.0 
-0.49721836360991806 -0.07640272072485933 -0.0 -0.42217282689553676 -1.0 -0.5243674208373469 0.15519131153068758 0.2335336135041712 0.9524645439899125 1:1.0 2:1.0 3:1.0 4:1.0 5:1.0 6:1.0 7:1.0 8:0.0 9:0.0 10:0.0 11:1.0 12:0.0 13:1.0 14:0.0 15:0.0 16:0.0 17:1.0 18:0.0 19:0.0 20:0.0 21:0.0 22:1.0 23:1.0 24:0.0 25:0.0 26:0.0 27:0.0 28:1.0 29:0.0 30:0.0 31:0.0 32:1.0 33:1.0 34:0.0 35:0.0 36:0.0 37:0.0 38:0.0 39:1.0 40:1.0 41:0.0 42:0.0 43:0.0 44:0.0 45:1.0 46:0.0 47:0.0 48:0.0 49:0.0 50:0.0 51:1.0 52:0.0 53:0.0 54:0.0 55:0.0 56:0.0 57:1.0 58:0.0 59:0.0 60:0.0 
-0.5277582860591161 -1.0 -1.0 -0.8166528629241763 -1.0 -0.5341955047469406 0.6068571292587871 0.7491562176291408 1.0 1:1.0 2:1.0 3:1.0 4:1.0 5:1.0 6:1.0 7:1.0 8:0.0 9:0.0 10:0.0 11:1.0 12:0.0 13:1.0 14:0.0 15:0.0 16:0.0 17:1.0 18:0.0 19:0.0 20:0.0 21:0.0 22:1.0 23:0.0 24:0.0 25:0.0 26:0.0 27:0.0 28:1.0 29:0.0 30:0.0 31:0.0 32:0.0 33:1.0 34:0.0 35:0.0 36:0.0 37:0.0 38:1.0 39:1.0 40:0.0 41:0.0 42:0.0 43:0.0 44:1.0 45:1.0 46:0.0 47:0.0 48:0.0 49:0.0 50:0.0 51:1.0 52:0.0 53:0.0 54:0.0 55:0.0 56:1.0 57:1.0 58:0.0 59:0.0 60:0.0 
-0.5681874084737789 -0.0 -0.6491176780710912 -0.0 -0.06475514652654468 -0.5444658189263647 0.39168049809039135 0.0 0.0 1:1.0 2:1.0 3:1.0 4:1.0 5:1.0 6:1.0 7:1.0 8:0.0 9:0.0 10:0.0 11:1.0 12:0.0 13:1.0 14:0.0 15:0.0 16:0.0 17:1.0 18:0.0 19:0.0 20:0.0 21:0.0 22:1.0 23:0.0 24:0.0 25:0.0 26:0.0 27:0.0 28:1.0 29:0.0 30:0.0 31:0.0 32:0.0 33:1.0 34:1.0 35:0.0 36:0.0 37:0.0 38:0.0 39:1.0 40:0.0 41:0.0 42:0.0 43:0.0 44:0.0 45:1.0 46:0.0 47:0.0 48:0.0 49:0.0 50:0.0 51:1.0 52:0.0 53:0.0 54:0.0 55:0.0 56:0.0 57:1.0 58:0.0 59:0.0 60:0.0 
-0.0 -0.0 -0.0 -0.0 -0.0 -0.03156946325413814 0.0 0.0 0.0 1:1.0 2:1.0 3:1.0 4:1.0 5:1.0 6:1.0 7:1.0 8:0.0 9:0.0 10:0.0 11:1.0 12:0.0 13:1.0 14:0.0 15:0.0 16:0.0 17:1.0 18:0.0 19:0.0 20:0.0 21:0.0 22:1.0 23:0.0 24:0.0 25:0.0 26:0.0 27:0.0 28:1.0 29:0.0 30:0.0 31:0.0 32:0.0 33:1.0 34:0.0 35:0.0 36:0.0 37:0.0 38:0.0 39:1.0 40:0.0 41:0.0 42:0.0 43:0.0 44:0.0 45:1.0 46:1.0 47:0.0 48:0.0 49:0.0 50:0.0 51:1.0 52:0.0 53:0.0 54:0.0 55:0.0 56:0.0 57:1.0 58:0.0 59:0.0 60:0.0 
-0.0 -1.0 -0.0 -0.0 -0.0 -0.0 0.0 0.0 0.0 1:1.0 2:1.0 3:1.0 4:1.0 5:1.0 6:1.0 7:1.0 8:0.0 9:1.0 10:0.0 11:1.0 12:0.0 13:1.0 14:0.0 15:0.0 16:0.0 17:1.0 18:0.0 19:0.0 20:0.0 21:0.0 22:1.0 23:0.0 24:0.0 25:0.0 26:0.0 27:0.0 28:1.0 29:0.0 30:0.0 31:0.0 32:0.0 33:1.0 34:0.0 35:0.0 36:0.0 37:0.0 38:0.0 39:1.0 40:0.0 41:0.0 42:0.0 43:0.0 44:0.0 45:1.0 46:0.0 47:0.0 48:0.0 49:0.0 50:0.0 51:1.0 52:0.0 53:0.0 54:0.0 55:0.0 56:0.0 57:1.0 58:0.0 59:0.0 60:0.0 
-0.3664076402872078 -0.0 -0.0 -0.0 -0.0 -0.017558772740585253 0.0 0.0 0.0 1:1.0 2:1.0 3:1.0 4:1.0 5:1.0 6:1.0 7:1.0 8:0.0 9:0.0 10:0.0 11:1.0 12:0.0 13:1.0 14:0.0 15:0.0 16:0.0 17:1.0 18:0.0 19:0.0 20:0.0 21:0.0 22:1.0 23:0.0 24:0.0 25:0.0 26:0.0 27:0.0 28:1.0 29:0.0 30:0.0 31:0.0 32:1.0 33:1.0 34:0.0 35:0.0 36:0.0 37:0.0 38:0.0 39:1.0 40:1.0 41:0.0 42:0.0 43:0.0 44:0.0 45:1.0 46:0.0 47:0.0 48:0.0 49:0.0 50:0.0 51:1.0 52:0.0 53:0.0 54:0.0 55:0.0 56:0.0 57:1.0 58:0.0 59:0.0 60:0.0 
-0.0 -0.0 -0.0 -0.0 -0.0 -0.03565179758433219 0.0 0.0 0.0 1:1.0 2:1.0 3:1.0 4:1.0 5:1.0 6:1.0 7:1.0 8:0.0 9:0.0 10:0.0 11:1.0 12:0.0 13:1.0 14:0.0 15:0.0 16:0.0 17:1.0 18:0.0 19:0.0 20:1.0 21:0.0 22:1.0 23:0.0 24:0.0 25:0.0 26:0.0 27:0.0 28:1.0 29:0.0 30:0.0 31:0.0 32:0.0 33:1.0 34:0.0 35:0.0 36:0.0 37:0.0 38:0.0 39:1.0 40:0.0 41:0.0 42:0.0 43:0.0 44:0.0 45:1.0 46:0.0 47:0.0 48:0.0 49:0.0 50:0.0 51:1.0 52:0.0 53:0.0 54:0.0 55:0.0 56:0.0 57:1.0 58:0.0 59:0.0 60:0.0 
-0.0 -0.0 -0.32731200404295796 -0.0 -0.0 -0.0 -0.0 0.0 0.0 1:0.0 2:1.0 3:1.0 4:1.0 5:0.0 6:0.0 7:1.0 8:0.0 9:1.0 10:0.0 11:1.0 12:0.0 13:1.0 14:0.0 15:0.0 16:0.0 17:0.0 18:1.0 19:1.0 20:0.0 21:0.0 22:0.0 23:0.0 24:1.0 25:1.0 26:0.0 27:0.0 28:0.0 29:1.0 30:1.0 31:0.0 32:1.0 33:1.0 34:1.0 35:0.0 36:1.0 37:0.0 38:0.0 39:0.0 40:0.0 41:0.0 42:1.0 43:0.0 44:1.0 45:0.0 46:0.0 47:0.0 48:1.0 49:1.0 50:0.0 51:0.0 52:0.0 53:1.0 54:0.0 55:0.0 56:1.0 57:1.0 58:1.0 59:0.0 60:0.0 
-0.0 -0.0 -0.0 -0.0 -0.0 -0.0 -0.15865493733601124 0.0 0.0289446162428815 1:0.0 2:1.0 3:1.0 4:1.0 5:0.0 6:1.0 7:1.0 8:0.0 9:0.0 10:0.0 11:1.0 12:0.0 13:1.0 14:0.0 15:0.0 16:0.0 17:0.0 18:1.0 19:1.0 20:0.0 21:0.0 22:0.0 23:0.0 24:1.0 25:1.0 26:0.0 27:0.0 28:0.0 29:1.0 30:1.0 31:0.0 32:1.0 33:1.0 34:1.0 35:0.0 36:1.0 37:0.0 38:0.0 39:0.0 40:0.0 41:0.0 42:1.0 43:0.0 44:0.0 45:0.0 46:0.0 47:0.0 48:1.0 49:1.0 50:0.0 51:0.0 52:0.0 53:1.0 54:0.0 55:0.0 56:1.0 57:1.0 58:1.0 59:0.0 60:0.0 
-0.0 -0.0 -0.0 -0.0 -0.4812263282992047 -0.0 -0.0 0.0 0.4925123723537024 1:0.0 2:1.0 3:1.0 4:1.0 5:0.0 6:0.0 7:1.0 8:0.0 9:0.0 10:0.0 11:1.0 12:0.0 13:1.0 14:0.0 15:0.0 16:0.0 17:0.0 18:1.0 19:1.0 20:1.0 21:0.0 22:0.0 23:1.0 24:1.0 25:1.0 26:0.0 27:0.0 28:0.0 29:1.0 30:1.0 31:0.0 32:1.0 33:1.0 34:1.0 35:0.0 36:1.0 37:0.0 38:0.0 39:0.0 40:0.0 41:0.0 42:1.0 43:0.0 44:0.0 45:0.0 46:0.0 47:0.0 48:1.0 49:1.0 50:0.0 51:0.0 52:0.0 53:1.0 54:0.0 55:0.0 56:1.0 57:1.0 58:1.0 59:0.0 60:0.0 
-0.0 -0.584084447090398 -0.0 -0.0 -0.0 -0.0 -0.0 0.0 0.0 1:0.0 2:1.0 3:1.0 4:1.0 5:0.0 6:0.0 7:1.0 8:0.0 9:1.0 10:0.0 11:1.0 12:0.0 13:1.0 14:0.0 15:0.0 16:0.0 17:0.0 18:1.0 19:1.0 20:0.0 21:0.0 22:0.0 23:0.0 24:1.0 25:1.0 26:0.0 27:0.0 28:0.0 29:1.0 30:1.0 31:0.0 32:1.0 33:1.0 34:1.0 35:0.0 36:1.0 37:0.0 38:0.0 39:0.0 40:0.0 41:0.0 42:1.0 43:0.0 44:0.0 45:0.0 46:0.0 47:0.0 48:1.0 49:1.0 50:1.0 51:0.0 52:0.0 53:1.0 54:0.0 55:0.0 56:1.0 57:1.0 58:1.0 59:0.0 60:0.0 
-0.16552740713191366 -0.5317153802898223 -0.0 -0.0 -0.0 -1.0 -0.5668947669318443 0.0 0.15288368722854792 1:0.0 2:1.0 3:1.0 4:1.0 5:0.0 6:0.0 7:1.0 8:0.0 9:0.0 10:0.0 11:1.0 12:0.0 13:1.0 14:0.0 15:1.0 16:0.0 17:0.0 18:1.0 19:1.0 20:0.0 21:0.0 22:1.0 23:0.0 24:1.0 25:1.0 26:0.0 27:0.0 28:0.0 29:1.0 30:1.0 31:0.0 32:1.0 33:1.0 34:1.0 35:0.0 36:1.0 37:0.0 38:1.0 39:0.0 40:0.0 41:0.0 42:1.0 43:0.0 44:0.0 45:0.0 46:0.0 47:0.0 48:1.0 49:1.0 50:0.0 51:0.0 52:0.0 53:1.0 54:0.0 55:0.0 56:1.0 57:1.0 58:1.0 59:0.0 60:0.0 
-0.0 -0.0 -0.0 -0.04861489195078778 -0.1503386419856135 -0.0 -0.0 0.041454579169129056 0.0 1:0.0 2:1.0 3:1.0 4:1.0 5:0.0 6:0.0 7:1.0 8:0.0 9:0.0 10:0.0 11:1.0 12:0.0 13:1.0 14:0.0 15:0.0 16:0.0 17:0.0 18:1.0 19:1.0 20:0.0 21:0.0 22:0.0 23:0.0 24:1.0 25:1.0 26:0.0 27:0.0 28:1.0 29:1.0 30:1.0 31:0.0 32:1.0 33:1.0 34:1.0 35:0.0 36:1.0 37:0.0 38:0.0 39:0.0 40:0.0 41:0.0 42:1.0 43:0.0 44:0.0 45:0.0 46:0.0 47:0.0 48:1.0 49:1.0 50:0.0 51:0.0 52:0.0 53:1.0 54:0.0 55:0.0 56:1.0 57:1.0 58:1.0 59:0.0 60:0.0 
-0.12435861776760399 -0.0 -0.0 -0.3147629060439522 -0.2180911535191745 -0.0 -0.33991535089149805 0.6495794247520857 0.6061327150050114 1:0.0 2:1.0 3:1.0 4:1.0 5:0.0 6:1.0 7:1.0 8:0.0 9:0.0 10:0.0 11:1.0 12:0.0 13:1.0 14:0.0 15:0.0 16:0.0 17:0.0 18:1.0 19:1.0 20:0.0 21:0.0 22:0.0 23:0.0 24:1.0 25:1.0 26:0.0 27:0.0 28:0.0 29:1.0 30:1.0 31:1.0 32:1.0 33:1.0 34:1.0 35:1.0 36:1.0 37:0.0 38:0.0 39:0.0 40:0.0 41:0.0 42:1.0 43:0.0 44:0.0 45:0.0 46:0.0 47:0.0 48:1.0 49:1.0 50:0.0 51:0.0 52:0.0 53:1.0 54:0.0 55:0.0 56:1.0 57:1.0 58:1.0 59:0.0 60:0.0 
-0.5230106763858414 -0.0 -0.0 -0.0 -0.0 -0.095760976337013 -0.2361841128742148 0.0 0.4786524783461412 1:0.0 2:1.0 3:1.0 4:1.0 5:0.0 6:0.0 7:1.0 8:0.0 9:0.0 10:0.0 11:1.0 12:0.0 13:1.0 14:0.0 15:0.0 16:0.0 17:0.0 18:1.0 19:1.0 20:0.0 21:0.0 22:1.0 23:0.0 24:1.0 25:1.0 26:0.0 27:0.0 28:0.0 29:1.0 30:1.0 31:0.0 32:1.0 33:1.0 34:1.0 35:0.0 36:1.0 37:0.0 38:0.0 39:0.0 40:0.0 41:0.0 42:1.0 43:0.0 44:0.0 45:0.0 46:1.0 47:0.0 48:1.0 49:1.0 50:0.0 51:0.0 52:0.0 53:1.0 54:0.0 55:0.0 56:1.0 57:1.0 58:1.0 59:0.0 60:0.0 
-0.0 -0.1281391922737139 -0.34543889535669037 -0.0 -0.0 -0.5555621089962305 -0.0 0.5368621926450565 0.44687148990338255 1:0.0 2:1.0 3:1.0 4:1.0 5:0.0 6:0.0 7:1.0 8:0.0 9:0.0 10:0.0 11:1.0 12:0.0 13:1.0 14:0.0 15:0.0 16:1.0 17:0.0 18:1.0 19:1.0 20:0.0 21:0.0 22:0.0 23:0.0 24:1.0 25:1.0 26:1.0 27:0.0 28:0.0 29:1.0 30:1.0 31:0.0 32:1.0 33:1.0 34:1.0 35:0.0 36:1.0 37:0.0 38:0.0 39:0.0 40:0.0 41:0.0 42:1.0 43:0.0 44:0.0 45:0.0 46:0.0 47:1.0 48:1.0 49:1.0 50:0.0 51:0.0 52:0.0 53:1.0 54:0.0 55:0.0 56:1.0 57:1.0 58:1.0 59:0.0 60:1.0 
-0.0 -0.0 -0.0 -0.0 -0.1527878165711299 -0.0 -0.0 0.0 0.13102496448255163 1:0.0 2:1.0 3:1.0 4:1.0 5:0.0 6:0.0 7:1.0 8:0.0 9:0.0 10:0.0 11:1.0 12:0.0 13:1.0 14:0.0 15:0.0 16:0.0 17:0.0 18:1.0 19:1.0 20:0.0 21:0.0 22:0.0 23:1.0 24:1.0 25:1.0 26:0.0 27:0.0 28:0.0 29:1.0 30:1.0 31:0.0 32:1.0 33:1.0 34:1.0 35:0.0 36:1.0 37:0.0 38:0.0 39:0.0 40:0.0 41:0.0 42:1.0 43:0.0 44:0.0 45:0.0 46:0.0 47:0.0 48:1.0 49:1.0 50:0.0 51:0.0 52:0.0 53:1.0 54:0.0 55:0.0 56:1.0 57:1.0 58:1.0 59:0.0 60:0.0 
-0.603642327257707 -0.5 -0.7768910522581046 -0.5202497101028566 -0.556143753634411 -0.0 -0.0 0.7476906936730204 0.0 1:0.0 2:1.0 3:1.0 4:1.0 5:0.0 6:0.0 7:1.0 8:0.0 9:0.0 10:0.0 11:1.0 12:0.0 13:1.0 14:0.0 15:0.0 16:0.0 17:0.0 18:1.0 19:1.0 20:0.0 21:0.0 22:0.0 23:0.0 24:1.0 25:1.0 26:0.0 27:1.0 28:0.0 29:1.0 30:1.0 31:0.0 32:1.0 33:1.0 34:1.0 35:0.0 36:1.0 37:0.0 38:0.0 39:0.0 40:0.0 41:0.0 42:1.0 43:0.0 44:1.0 45:0.0 46:0.0 47:0.0 48:1.0 49:1.0 50:0.0 51:0.0 52:0.0 53:1.0 54:0.0 55:0.0 56:1.0 57:1.0 58:1.0 59:0.0 60:0.0 
-0.357069423706072 -0.0 -0.0 -0.5587711558966513 -1.0 -0.0 -0.0 1.0 0.4235348915020207 1:0.0 2:1.0 3:1.0 4:1.0 5:0.0 6:0.0 7:1.0 8:0.0 9:0.0 10:0.0 11:1.0 12:0.0 13:1.0 14:0.0 15:0.0 16:0.0 17:0.0 18:1.0 19:1.0 20:0.0 21:0.0 22:0.0 23:0.0 24:1.0 25:1.0 26:0.0 27:0.0 28:0.0 29:1.0 30:1.0 31:0.0 32:1.0 33:1.0 34:1.0 35:1.0 36:1.0 37:0.0 38:1.0 39:0.0 40:0.0 41:0.0 42:1.0 43:1.0 44:0.0 45:0.0 46:0.0 47:0.0 48:1.0 49:1.0 50:0.0 51:0.0 52:0.0 53:1.0 54:0.0 55:0.0 56:1.0 57:1.0 58:1.0 59:0.0 60:0.0 
-1.0 -0.5 -0.9378195374341737 -0.5028078387693252 -0.4835439057086924 -0.5865481257484572 -1.0 0.8552044318721839 0.0 1:0.0 2:1.0 3:1.0 4:1.0 5:0.0 6:0.0 7:1.0 8:0.0 9:0.0 10:0.0 11:1.0 12:0.0 13:1.0 14:0.0 15:0.0 16:0.0 17:0.0 18:1.0 19:1.0 20:0.0 21:0.0 22:0.0 23:0.0 24:1.0 25:1.0 26:0.0 27:0.0 28:1.0 29:1.0 30:1.0 31:0.0 32:1.0 33:1.0 34:1.0 35:0.0 36:1.0 37:0.0 38:0.0 39:1.0 40:0.0 41:0.0 42:1.0 43:0.0 44:0.0 45:0.0 46:0.0 47:0.0 48:1.0 49:1.0 50:0.0 51:0.0 52:0.0 53:1.0 54:0.0 55:0.0 56:1.0 57:1.0 58:1.0 59:0.0 60:0.0 
-0.3513608505430629 -0.577163741308803 -1.0 -0.5036432907673457 -0.07360921144856147 -0.0961984662148462 -0.0 0.6901450500645395 0.27589810966229833 1:0.0 2:1.0 3:1.0 4:1.0 5:0.0 6:0.0 7:1.0 8:0.0 9:0.0 10:0.0 11:1.0 12:0.0 13:1.0 14:0.0 15:0.0 16:0.0 17:0.0 18:1.0 19:1.0 20:0.0 21:0.0 22:0.0 23:0.0 24:1.0 25:1.0 26:0.0 27:0.0 28:0.0 29:1.0 30:1.0 31:0.0 32:1.0 33:1.0 34:1.0 35:0.0 36:1.0 37:0.0 38:1.0 39:0.0 40:0.0 41:0.0 42:1.0 43:0.0 44:0.0 45:0.0 46:0.0 47:0.0 48:1.0 49:1.0 50:0.0 51:0.0 52:0.0 53:1.0 54:0.0 55:0.0 56:1.0 57:1.0 58:1.0 59:1.0 60:0.0 
-0.0 -0.0 -0.0 -0.0 -0.0 -0.0 -0.4859128878549424 0.0 0.6126997556380047 1:1.0 2:1.0 3:1.0 4:1.0 5:0.0 6:0.0 7:1.0 8:0.0 9:0.0 10:0.0 11:1.0 12:0.0 13:1.0 14:0.0 15:0.0 16:0.0 17:0.0 18:1.0 19:1.0 20:0.0 21:0.0 22:0.0 23:0.0 24:1.0 25:1.0 26:0.0 27:0.0 28:0.0 29:1.0 30:1.0 31:0.0 32:1.0 33:1.0 34:1.0 35:0.0 36:1.0 37:0.0 38:0.0 39:0.0 40:0.0 41:0.0 42:1.0 43:0.0 44:0.0 45:0.0 46:0.0 47:0.0 48:1.0 49:1.0 50:0.0 51:0.0 52:0.0 53:1.0 54:0.0 55:0.0 56:1.0 57:1.0 58:1.0 59:0.0 60:0.0 
-0.0 -0.0 -0.18147034191529496 -0.0 -0.0 -0.0 -0.0 0.0 0.0 1:0.0 2:1.0 3:1.0 4:1.0 5:0.0 6:0.0 7:1.0 8:0.0 9:0.0 10:0.0 11:1.0 12:0.0 13:1.0 14:0.0 15:0.0 16:0.0 17:0.0 18:1.0 19:1.0 20:0.0 21:0.0 22:0.0 23:0.0 24:1.0 25:1.0 26:0.0 27:0.0 28:0.0 29:1.0 30:1.0 31:0.0 32:1.0 33:1.0 34:1.0 35:0.0 36:1.0 37:0.0 38:0.0 39:0.0 40:0.0 41:0.0 42:1.0 43:0.0 44:0.0 45:0.0 46:0.0 47:0.0 48:1.0 49:1.0 50:1.0 51:0.0 52:0.0 53:1.0 54:0.0 55:0.0 56:1.0 57:1.0 58:1.0 59:0.0 60:1.0 
-0.0 -0.0 -0.0 -0.0 -0.0 -0.0 -0.33309611950734674 0.37407833526281026 0.0 1:0.0 2:1.0 3:1.0 4:1.0 5:0.0 6:0.0 7:1.0 8:0.0 9:0.0 10:0.0 11:1.0 12:0.0 13:1.0 14:0.0 15:0.0 16:0.0 17:1.0 18:1.0 19:1.0 20:0.0 21:0.0 22:0.0 23:0.0 24:1.0 25:1.0 26:0.0 27:0.0 28:0.0 29:1.0 30:1.0 31:0.0 32:1.0 33:1.0 34:1.0 35:1.0 36:1.0 37:0.0 38:0.0 39:0.0 40:0.0 41:0.0 42:1.0 43:0.0 44:0.0 45:0.0 46:0.0 47:0.0 48:1.0 49:1.0 50:0.0 51:0.0 52:0.0 53:1.0 54:0.0 55:0.0 56:1.0 57:1.0 58:1.0 59:0.0 60:0.0 
-0.5460709224818789 -0.5303455250199846 -1.0 -0.6485968470009185 -0.7250779138519006 -0.22552342132805706 -0.686994300430101 0.8909386619163522 0.9222488253383841 1:0.0 2:1.0 3:1.0 4:1.0 5:1.0 6:0.0 7:1.0 8:0.0 9:0.0 10:0.0 11:1.0 12:0.0 13:1.0 14:0.0 15:0.0 16:0.0 17:0.0 18:1.0 19:1.0 20:0.0 21:0.0 22:0.0 23:0.0 24:1.0 25:1.0 26:0.0 27:0.0 28:0.0 29:1.0 30:1.0 31:0.0 32:1.0 33:1.0 34:1.0 35:0.0 36:1.0 37:0.0 38:0.0 39:0.0 40:0.0 41:1.0 42:1.0 43:0.0 44:0.0 45:0.0 46:0.0 47:0.0 48:1.0 49:1.0 50:1.0 51:0.0 52:0.0 53:1.0 54:0.0 55:1.0 56:1.0 57:1.0 58:1.0 59:0.0 60:0.0 
-0.6040743613854088 -0.0 -0.7705450272854215 -0.7228261678624373 -0.562642286642629 -0.0 -0.0 0.43490182912276243 0.3432305356862618 1:0.0 2:1.0 3:1.0 4:1.0 5:0.0 6:0.0 7:1.0 8:0.0 9:0.0 10:0.0 11:1.0 12:0.0 13:1.0 14:0.0 15:0.0 16:0.0 17:0.0 18:1.0 19:1.0 20:0.0 21:0.0 22:0.0 23:0.0 24:1.0 25:1.0 26:0.0 27:0.0 28:0.0 29:1.0 30:1.0 31:0.0 32:1.0 33:1.0 34:1.0 35:0.0 36:1.0 37:0.0 38:0.0 39:0.0 40:0.0 41:0.0 42:1.0 43:0.0 44:0.0 45:0.0 46:0.0 47:1.0 48:1.0 49:1.0 50:0.0 51:0.0 52:0.0 53:1.0 54:1.0 55:0.0 56:1.0 57:1.0 58:1.0 59:0.0 60:0.0 
-1.0 -0.0 -0.0 -1.0 -0.0 -0.5793023016260807 -0.0 0.37616087754857425 0.0 1:0.0 2:1.0 3:1.0 4:1.0 5:0.0 6:0.0 7:1.0 8:0.0 9:0.0 10:0.0 11:1.0 12:0.0 13:1.0 14:0.0 15:0.0 16:0.0 17:0.0 18:1.0 19:1.0 20:0.0 21:0.0 22:0.0 23:0.0 24:1.0 25:1.0 26:0.0 27:0.0 28:0.0 29:1.0 30:1.0 31:1.0 32:1.0 33:1.0 34:1.0 35:0.0 36:1.0 37:1.0 38:0.0 39:0.0 40:0.0 41:0.0 42:1.0 43:0.0 44:0.0 45:0.0 46:0.0 47:0.0 48:1.0 49:1.0 50:0.0 51:0.0 52:0.0 53:1.0 54:0.0 55:0.0 56:1.0 57:1.0 58:1.0 59:0.0 60:0.0 
-0.03063970343183999 -0.40236281965914356 -1.0 -0.0 -1.0 -0.0 -0.0 -0.0 0.18001940729755855 1:0.0 2:1.0 3:1.0 4:1.0 5:1.0 6:0.0 7:1.0 8:0.0 9:0.0 10:0.0 11:0.0 12:1.0 13:1.0 14:0.0 15:0.0 16:0.0 17:0.0 18:1.0 19:1.0 20:0.0 21:0.0 22:0.0 23:1.0 24:1.0 25:0.0 26:1.0 27:1.0 28:1.0 29:1.0 30:0.0 31:0.0 32:1.0 33:0.0 34:0.0 35:1.0 36:0.0 37:1.0 38:0.0 39:0.0 40:1.0 41:0.0 42:1.0 43:1.0 44:0.0 45:0.0 46:0.0 47:0.0 48:1.0 49:1.0 50:0.0 51:0.0 52:0.0 53:0.0 54:1.0 55:1.0 56:1.0 57:1.0 58:1.0 59:1.0 60:0.0 
-0.44163225719775473 -0.0 -0.0 -0.0 -0.0 -0.0 -0.0 -0.0 0.0 1:0.0 2:1.0 3:1.0 4:1.0 5:1.0 6:0.0 7:1.0 8:0.0 9:0.0 10:0.0 11:0.0 12:1.0 13:1.0 14:0.0 15:0.0 16:0.0 17:0.0 18:1.0 19:1.0 20:0.0 21:0.0 22:0.0 23:0.0 24:1.0 25:0.0 26:1.0 27:1.0 28:1.0 29:1.0 30:0.0 31:0.0 32:1.0 33:1.0 34:0.0 35:1.0 36:0.0 37:1.0 38:0.0 39:0.0 40:0.0 41:0.0 42:1.0 43:1.0 44:0.0 45:0.0 46:0.0 47:0.0 48:1.0 49:1.0 50:0.0 51:0.0 52:0.0 53:0.0 54:1.0 55:0.0 56:1.0 57:1.0 58:1.0 59:1.0 60:0.0 
-0.0 -0.0 -1.0 -0.0 -0.11365026280807475 -0.0 -0.0 -0.1404575573804755 0.011494526053522363 1:0.0 2:1.0 3:1.0 4:1.0 5:1.0 6:0.0 7:1.0 8:0.0 9:0.0 10:0.0 11:0.0 12:1.0 13:1.0 14:0.0 15:0.0 16:0.0 17:0.0 18:1.0 19:1.0 20:0.0 21:0.0 22:0.0 23:0.0 24:1.0 25:0.0 26:1.0 27:1.0 28:1.0 29:1.0 30:1.0 31:0.0 32:1.0 33:0.0 34:0.0 35:1.0 36:0.0 37:1.0 38:0.0 39:0.0 40:0.0 41:0.0 42:1.0 43:1.0 44:1.0 45:0.0 46:0.0 47:0.0 48:1.0 49:1.0 50:0.0 51:0.0 52:0.0 53:0.0 54:1.0 55:0.0 56:1.0 57:1.0 58:1.0 59:1.0 60:0.0 
-0.0 -0.0 -0.0 -0.0 -0.2030996097715852 -0.0 -0.0 -0.6313243034175718 0.2796922322282376 1:0.0 2:1.0 3:1.0 4:1.0 5:1.0 6:0.0 7:1.0 8:0.0 9:0.0 10:0.0 11:0.0 12:1.0 13:1.0 14:0.0 15:0.0 16:0.0 17:0.0 18:1.0 19:1.0 20:0.0 21:0.0 22:0.0 23:0.0 24:1.0 25:0.0 26:1.0 27:1.0 28:1.0 29:1.0 30:1.0 31:0.0 32:1.0 33:0.0 34:0.0 35:1.0 36:0.0 37:1.0 38:0.0 39:0.0 40:0.0 41:1.0 42:1.0 43:1.0 44:0.0 45:0.0 46:0.0 47:0.0 48:1.0 49:1.0 50:1.0 51:0.0 52:0.0 53:0.0 54:1.0 55:0.0 56:1.0 57:1.0 58:1.0 59:1.0 60:0.0 
-0.0 -0.0 -0.0 -0.028907843988383593 -1.0 -0.0 -0.897596773288537 -0.0 0.0 1:0.0 2:1.0 3:1.0 4:1.0 5:1.0 6:0.0 7:1.0 8:0.0 9:0.0 10:0.0 11:0.0 12:1.0 13:1.0 14:0.0 15:0.0 16:0.0 17:1.0 18:1.0 19:1.0 20:0.0 21:0.0 22:0.0 23:0.0 24:1.0 25:0.0 26:1.0 27:1.0 28:1.0 29:1.0 30:0.0 31:0.0 32:1.0 33:0.0 34:0.0 35:1.0 36:0.0 37:1.0 38:0.0 39:0.0 40:0.0 41:0.0 42:1.0 43:1.0 44:0.0 45:0.0 46:0.0 47:0.0 48:1.0 49:1.0 50:0.0 51:0.0 52:0.0 53:0.0 54:1.0 55:0.0 56:1.0 57:1.0 58:1.0 59:1.0 60:0.0 
-0.0 -0.0 -0.0 -0.0 -0.0 -0.0 -0.19681110523474568 -1.0 0.0 1:0.0 2:1.0 3:1.0 4:1.0 5:1.0 6:0.0 7:1.0 8:0.0 9:0.0 10:0.0 11:0.0 12:1.0 13:1.0 14:0.0 15:0.0 16:0.0 17:0.0 18:1.0 19:1.0 20:0.0 21:0.0 22:0.0 23:0.0 24:1.0 25:0.0 26:1.0 27:1.0 28:1.0 29:1.0 30:0.0 31:0.0 32:1.0 33:1.0 34:0.0 35:1.0 36:0.0 37:1.0 38:0.0 39:0.0 40:0.0 41:0.0 42:1.0 43:1.0 44:0.0 45:0.0 46:0.0 47:0.0 48:1.0 49:1.0 50:0.0 51:0.0 52:0.0 53:1.0 54:1.0 55:0.0 56:1.0 57:1.0 58:1.0 59:1.0 60:0.0 
-1.0 -0.5533970867267549 -0.053212566437057546 -1.0 -0.9090978631678219 -0.0 -0.0 -0.0 0.0 1:0.0 2:1.0 3:1.0 4:1.0 5:1.0 6:0.0 7:1.0 8:0.0 9:1.0 10:0.0 11:0.0 12:1.0 13:1.0 14:0.0 15:0.0 16:0.0 17:0.0 18:1.0 19:1.0 20:0.0 21:0.0 22:0.0 23:0.0 24:1.0 25:0.0 26:1.0 27:1.0 28:1.0 29:1.0 30:0.0 31:1.0 32:1.0 33:0.0 34:0.0 35:1.0 36:0.0 37:1.0 38:0.0 39:0.0 40:0.0 41:0.0 42:1.0 43:1.0 44:0.0 45:0.0 46:0.0 47:0.0 48:1.0 49:1.0 50:0.0 51:0.0 52:0.0 53:0.0 54:1.0 55:0.0 56:1.0 57:1.0 58:1.0 59:1.0 60:0.0 
-1.0 -0.30961774777016476 -1.0 -0.04312085079627621 -0.0 -1.0 -0.35995071639688886 -0.47187973969267927 0.0 1:0.0 2:1.0 3:1.0 4:1.0 5:1.0 6:0.0 7:1.0 8:0.0 9:0.0 10:0.0 11:0.0 12:1.0 13:1.0 14:0.0 15:0.0 16:0.0 17:0.0 18:1.0 19:1.0 20:0.0 21:0.0 22:0.0 23:0.0 24:1.0 25:0.0 26:1.0 27:1.0 28:1.0 29:1.0 30:0.0 31:0.0 32:1.0 33:0.0 34:1.0 35:1.0 36:0.0 37:1.0 38:0.0 39:1.0 40:0.0 41:0.0 42:1.0 43:1.0 44:0.0 45:0.0 46:0.0 47:0.0 48:1.0 49:1.0 50:0.0 51:0.0 52:1.0 53:0.0 54:1.0 55:0.0 56:1.0 57:1.0 58:1.0 59:1.0 60:0.0 
-1.0 -0.0 -0.0 -1.0 -0.0 -0.0 -0.09080005452141947 -1.0 1.0 1:0.0 2:1.0 3:1.0 4:1.0 5:1.0 6:1.0 7:1.0 8:0.0 9:0.0 10:0.0 11:0.0 12:1.0 13:1.0 14:0.0 15:0.0 16:0.0 17:0.0 18:1.0 19:1.0 20:0.0 21:0.0 22:0.0 23:0.0 24:1.0 25:1.0 26:1.0 27:1.0 28:1.0 29:1.0 30:1.0 31:0.0 32:1.0 33:0.0 34:0.0 35:1.0 36:0.0 37:1.0 38:0.0 39:0.0 40:0.0 41:0.0 42:1.0 43:1.0 44:0.0 45:0.0 46:0.0 47:0.0 48:1.0 49:1.0 50:0.0 51:0.0 52:0.0 53:0.0 54:1.0 55:0.0 56:1.0 57:1.0 58:1.0 59:1.0 60:0.0 
-0.0 -0.0 -0.0 -1.0 -0.21064984862998137 -0.3456942257509516 -0.0 -0.0 0.0 1:0.0 2:1.0 3:1.0 4:1.0 5:1.0 6:0.0 7:1.0 8:0.0 9:0.0 10:0.0 11:0.0 12:1.0 13:1.0 14:0.0 15:0.0 16:0.0 17:0.0 18:1.0 19:1.0 20:0.0 21:0.0 22:0.0 23:0.0 24:1.0 25:0.0 26:1.0 27:1.0 28:1.0 29:1.0 30:0.0 31:0.0 32:1.0 33:0.0 34:0.0 35:1.0 36:0.0 37:1.0 38:1.0 39:0.0 40:0.0 41:1.0 42:1.0 43:1.0 44:0.0 45:0.0 46:0.0 47:0.0 48:1.0 49:1.0 50:0.0 51:0.0 52:0.0 53:0.0 54:1.0 55:0.0 56:1.0 57:1.0 58:1.0 59:1.0 60:0.0 
-0.0 -0.0 -0.0 -0.26621848541603726 -0.0 -0.0 -0.0 -0.0 0.0 1:0.0 2:1.0 3:1.0 4:1.0 5:1.0 6:0.0 7:1.0 8:0.0 9:0.0 10:0.0 11:0.0 12:1.0 13:1.0 14:0.0 15:0.0 16:0.0 17:0.0 18:1.0 19:1.0 20:0.0 21:0.0 22:0.0 23:0.0 24:1.0 25:0.0 26:1.0 27:1.0 28:1.0 29:1.0 30:0.0 31:0.0 32:1.0 33:0.0 34:0.0 35:1.0 36:0.0 37:1.0 38:0.0 39:0.0 40:1.0 41:0.0 42:1.0 43:1.0 44:0.0 45:0.0 46:0.0 47:0.0 48:1.0 49:1.0 50:0.0 51:0.0 52:1.0 53:0.0 54:1.0 55:0.0 56:1.0 57:1.0 58:1.0 59:1.0 60:0.0 
-0.0 -0.0 -0.0 -0.0 -0.30710822539616073 -0.0 -0.443402813722486 -0.0 0.5951978150269538 1:1.0 2:1.0 3:1.0 4:1.0 5:1.0 6:0.0 7:1.0 8:0.0 9:0.0 10:0.0 11:0.0 12:1.0 13:1.0 14:0.0 15:0.0 16:0.0 17:0.0 18:1.0 19:1.0 20:0.0 21:0.0 22:0.0 23:0.0 24:1.0 25:0.0 26:1.0 27:1.0 28:1.0 29:1.0 30:0.0 31:0.0 32:1.0 33:0.0 34:0.0 35:1.0 36:0.0 37:1.0 38:0.0 39:0.0 40:0.0 41:0.0 42:1.0 43:1.0 44:0.0 45:0.0 46:0.0 47:0.0 48:1.0 49:1.0 50:0.0 51:0.0 52:0.0 53:0.0 54:1.0 55:0.0 56:1.0 57:1.0 58:1.0 59:1.0 60:0.0 
-1.0 -1.0 -1.0 -1.0 -1.0 -1.0 -1.0 -1.0 1.0 1:0.0 2:1.0 3:1.0 4:1.0 5:0.0 6:0.0 7:1.0 8:0.0 9:0.0 10:0.0 11:1.0 12:0.0 13:1.0 14:0.0 15:0.0 16:0.0 17:0.0 18:1.0 19:1.0 20:0.0 21:0.0 22:0.0 23:0.0 24:1.0 25:1.0 26:0.0 27:0.0 28:0.0 29:1.0 30:1.0 31:0.0 32:1.0 33:1.0 34:1.0 35:1.0 36:1.0 37:0.0 38:1.0 39:0.0 40:0.0 41:0.0 42:1.0 43:1.0 44:0.0 45:0.0 46:0.0 47:0.0 48:1.0 49:1.0 50:0.0 51:0.0 52:0.0 53:1.0 54:0.0 55:0.0 56:1.0 57:1.0 58:1.0 59:0.0 60:0.0 
-0.804303388164473 -0.5533970867267554 -0.0 -0.24107871023373034 -1.0 -0.0 -0.4664067747694211 -0.0 1.0 1:1.0 2:1.0 3:1.0 4:1.0 5:1.0 6:0.0 7:1.0 8:0.0 9:0.0 10:0.0 11:0.0 12:1.0 13:1.0 14:0.0 15:0.0 16:0.0 17:0.0 18:1.0 19:1.0 20:0.0 21:1.0 22:0.0 23:0.0 24:1.0 25:0.0 26:1.0 27:1.0 28:1.0 29:1.0 30:0.0 31:0.0 32:1.0 33:0.0 34:0.0 35:1.0 36:0.0 37:1.0 38:0.0 39:0.0 40:0.0 41:0.0 42:1.0 43:1.0 44:0.0 45:0.0 46:0.0 47:0.0 48:1.0 49:1.0 50:0.0 51:0.0 52:0.0 53:0.0 54:1.0 55:0.0 56:1.0 57:1.0 58:1.0 59:1.0 60:0.0 
-0.0 -0.35751435851984326 -1.0 -0.5416280180707664 -0.7985016330978008 -0.0 -0.0 -0.0 0.0 1:0.0 2:1.0 3:1.0 4:1.0 5:1.0 6:0.0 7:1.0 8:0.0 9:0.0 10:1.0 11:0.0 12:1.0 13:1.0 14:0.0 15:0.0 16:0.0 17:0.0 18:1.0 19:1.0 20:0.0 21:0.0 22:0.0 23:0.0 24:1.0 25:0.0 26:1.0 27:1.0 28:1.0 29:1.0 30:0.0 31:0.0 32:1.0 33:0.0 34:0.0 35:1.0 36:0.0 37:1.0 38:0.0 39:0.0 40:0.0 41:0.0 42:1.0 43:1.0 44:0.0 45:0.0 46:0.0 47:0.0 48:1.0 49:1.0 50:0.0 51:0.0 52:0.0 53:0.0 54:1.0 55:1.0 56:1.0 57:1.0 58:1.0 59:1.0 60:0.0 
-0.0 -0.30961774777016426 -1.0 -0.4986172401203228 -0.40615034533198185 -0.06978480046320837 -0.0 -0.12795758184483075 0.0 1:0.0 2:1.0 3:1.0 4:1.0 5:1.0 6:0.0 7:1.0 8:0.0 9:0.0 10:0.0 11:0.0 12:1.0 13:1.0 14:1.0 15:1.0 16:0.0 17:0.0 18:1.0 19:1.0 20:0.0 21:0.0 22:0.0 23:0.0 24:1.0 25:0.0 26:1.0 27:1.0 28:1.0 29:1.0 30:0.0 31:0.0 32:1.0 33:0.0 34:1.0 35:1.0 36:0.0 37:1.0 38:0.0 39:0.0 40:0.0 41:0.0 42:1.0 43:1.0 44:0.0 45:0.0 46:0.0 47:0.0 48:1.0 49:1.0 50:0.0 51:0.0 52:0.0 53:0.0 54:1.0 55:0.0 56:1.0 57:1.0 58:1.0 59:1.0 60:0.0 
-0.0 -0.0 -0.0 -1.0 -1.0 -0.0 -0.14618456034698313 -1.0 1.0 1:0.0 2:1.0 3:1.0 4:1.0 5:1.0 6:0.0 7:1.0 8:0.0 9:0.0 10:0.0 11:1.0 12:1.0 13:1.0 14:0.0 15:0.0 16:0.0 17:0.0 18:1.0 19:1.0 20:0.0 21:0.0 22:0.0 23:1.0 24:1.0 25:0.0 26:1.0 27:1.0 28:1.0 29:1.0 30:0.0 31:0.0 32:1.0 33:0.0 34:0.0 35:1.0 36:1.0 37:1.0 38:0.0 39:0.0 40:0.0 41:0.0 42:1.0 43:1.0 44:0.0 45:0.0 46:0.0 47:0.0 48:1.0 49:1.0 50:0.0 51:0.0 52:0.0 53:0.0 54:1.0 55:0.0 56:1.0 57:1.0 58:1.0 59:1.0 60:0.0 
-1.0 -0.0 -0.11105602173529026 -1.0 -1.0 -0.0 -0.0 -1.0 1.0 1:0.0 2:1.0 3:1.0 4:1.0 5:1.0 6:0.0 7:1.0 8:0.0 9:0.0 10:0.0 11:0.0 12:1.0 13:1.0 14:0.0 15:0.0 16:0.0 17:0.0 18:1.0 19:1.0 20:0.0 21:0.0 22:0.0 23:1.0 24:1.0 25:1.0 26:1.0 27:1.0 28:1.0 29:1.0 30:0.0 31:0.0 32:1.0 33:0.0 34:1.0 35:1.0 36:0.0 37:1.0 38:0.0 39:0.0 40:0.0 41:0.0 42:1.0 43:1.0 44:0.0 45:0.0 46:0.0 47:0.0 48:1.0 49:1.0 50:0.0 51:0.0 52:0.0 53:0.0 54:1.0 55:0.0 56:1.0 57:1.0 58:1.0 59:1.0 60:0.0 
-1.0 -0.0 -1.0 -1.0 -0.0 -0.9486377045553612 -0.0 -0.22539689369095717 0.0 1:0.0 2:1.0 3:1.0 4:1.0 5:1.0 6:0.0 7:1.0 8:0.0 9:0.0 10:0.0 11:0.0 12:1.0 13:1.0 14:0.0 15:0.0 16:0.0 17:0.0 18:1.0 19:1.0 20:0.0 21:0.0 22:0.0 23:0.0 24:1.0 25:1.0 26:1.0 27:1.0 28:1.0 29:1.0 30:0.0 31:0.0 32:1.0 33:0.0 34:0.0 35:1.0 36:0.0 37:1.0 38:0.0 39:0.0 40:1.0 41:0.0 42:1.0 43:1.0 44:0.0 45:0.0 46:0.0 47:0.0 48:1.0 49:1.0 50:1.0 51:0.0 52:0.0 53:0.0 54:1.0 55:0.0 56:1.0 57:1.0 58:1.0 59:1.0 60:1.0 
-0.0 -0.0 -0.0 -0.0 -0.47100531019251896 -0.0 -0.0 -0.0 0.0 1:0.0 2:1.0 3:1.0 4:1.0 5:1.0 6:0.0 7:1.0 8:0.0 9:0.0 10:0.0 11:0.0 12:1.0 13:1.0 14:0.0 15:0.0 16:0.0 17:0.0 18:1.0 19:1.0 20:0.0 21:0.0 22:0.0 23:0.0 24:1.0 25:0.0 26:1.0 27:1.0 28:1.0 29:1.0 30:0.0 31:0.0 32:1.0 33:0.0 34:0.0 35:1.0 36:0.0 37:1.0 38:0.0 39:0.0 40:0.0 41:0.0 42:1.0 43:1.0 44:0.0 45:0.0 46:0.0 47:0.0 48:1.0 49:1.0 50:0.0 51:0.0 52:0.0 53:0.0 54:1.0 55:0.0 56:1.0 57:1.0 58:1.0 59:1.0 60:0.0 
-0.0 -0.0 -0.0 -0.0 -1.0 -0.0 -0.0 -0.0 0.0 1:0.0 2:1.0 3:1.0 4:1.0 5:1.0 6:0.0 7:1.0 8:0.0 9:0.0 10:0.0 11:0.0 12:1.0 13:1.0 14:0.0 15:0.0 16:0.0 17:0.0 18:1.0 19:1.0 20:0.0 21:0.0 22:0.0 23:0.0 24:1.0 25:0.0 26:1.0 27:1.0 28:1.0 29:1.0 30:0.0 31:0.0 32:1.0 33:0.0 34:0.0 35:1.0 36:0.0 37:1.0 38:0.0 39:0.0 40:0.0 41:0.0 42:1.0 43:1.0 44:0.0 45:0.0 46:0.0 47:0.0 48:1.0 49:1.0 50:1.0 51:0.0 52:0.0 53:0.0 54:1.0 55:0.0 56:1.0 57:1.0 58:1.0 59:1.0 60:0.0 
-0.0 -0.0 -0.0 -0.0 -0.0 -0.0 -0.9963673794414457 -0.5291907172830742 -0.0 1:1.0 2:1.0 3:1.0 4:1.0 5:1.0 6:1.0 7:1.0 8:0.0 9:0.0 10:0.0 11:1.0 12:0.0 13:1.0 14:0.0 15:0.0 16:0.0 17:0.0 18:0.0 19:1.0 20:0.0 21:1.0 22:1.0 23:1.0 24:0.0 25:1.0 26:1.0 27:0.0 28:0.0 29:0.0 30:1.0 31:0.0 32:0.0 33:0.0 34:0.0 35:0.0 36:1.0 37:0.0 38:0.0 39:0.0 40:0.0 41:0.0 42:1.0 43:1.0 44:0.0 45:0.0 46:0.0 47:0.0 48:1.0 49:1.0 50:0.0 51:0.0 52:0.0 53:0.0 54:1.0 55:0.0 56:1.0 57:1.0 58:1.0 59:1.0 60:0.0 
-0.0 -0.016804730839357216 -0.0 -0.0 -0.31666346007695656 -0.15758176226851398 -0.5090692811129263 -1.0 -0.06900045018002776 1:1.0 2:1.0 3:1.0 4:1.0 5:1.0 6:1.0 7:1.0 8:0.0 9:0.0 10:0.0 11:1.0 12:0.0 13:1.0 14:0.0 15:0.0 16:0.0 17:0.0 18:0.0 19:1.0 20:0.0 21:1.0 22:1.0 23:1.0 24:0.0 25:1.0 26:1.0 27:0.0 28:0.0 29:0.0 30:1.0 31:0.0 32:0.0 33:0.0 34:0.0 35:0.0 36:1.0 37:0.0 38:0.0 39:0.0 40:0.0 41:1.0 42:1.0 43:1.0 44:0.0 45:0.0 46:0.0 47:0.0 48:1.0 49:1.0 50:1.0 51:0.0 52:0.0 53:0.0 54:1.0 55:0.0 56:1.0 57:1.0 58:1.0 59:1.0 60:0.0 
-0.0 -0.0 -0.0 -0.0 -0.09378783434453757 -0.2582464141165162 -0.0 -0.0 -0.0 1:1.0 2:1.0 3:1.0 4:1.0 5:1.0 6:1.0 7:1.0 8:0.0 9:0.0 10:0.0 11:0.0 12:0.0 13:1.0 14:0.0 15:0.0 16:0.0 17:0.0 18:0.0 19:1.0 20:1.0 21:1.0 22:1.0 23:1.0 24:0.0 25:1.0 26:1.0 27:0.0 28:0.0 29:0.0 30:1.0 31:0.0 32:0.0 33:0.0 34:0.0 35:0.0 36:1.0 37:0.0 38:0.0 39:0.0 40:0.0 41:0.0 42:1.0 43:1.0 44:0.0 45:0.0 46:0.0 47:0.0 48:1.0 49:1.0 50:1.0 51:0.0 52:0.0 53:0.0 54:1.0 55:0.0 56:1.0 57:1.0 58:1.0 59:1.0 60:0.0 
-0.0 -0.5519947827085006 -0.0 -0.0 -0.12438101940143755 -0.3336332864300848 -0.0 -0.0 -0.0 1:1.0 2:1.0 3:1.0 4:1.0 5:1.0 6:1.0 7:1.0 8:0.0 9:0.0 10:0.0 11:0.0 12:0.0 13:1.0 14:0.0 15:1.0 16:0.0 17:0.0 18:0.0 19:1.0 20:0.0 21:1.0 22:1.0 23:1.0 24:0.0 25:1.0 26:1.0 27:0.0 28:0.0 29:0.0 30:1.0 31:0.0 32:0.0 33:0.0 34:0.0 35:0.0 36:1.0 37:0.0 38:0.0 39:0.0 40:0.0 41:0.0 42:1.0 43:1.0 44:0.0 45:0.0 46:0.0 47:1.0 48:1.0 49:1.0 50:0.0 51:0.0 52:0.0 53:0.0 54:1.0 55:0.0 56:1.0 57:1.0 58:1.0 59:1.0 60:0.0 
-0.0 -0.0 -0.0 -0.0 -1.0 -0.0 -0.4470278834355406 -0.0 -0.03297419980066297 1:1.0 2:1.0 3:1.0 4:1.0 5:1.0 6:1.0 7:1.0 8:0.0 9:0.0 10:0.0 11:0.0 12:0.0 13:1.0 14:0.0 15:0.0 16:0.0 17:1.0 18:0.0 19:1.0 20:0.0 21:1.0 22:1.0 23:1.0 24:0.0 25:1.0 26:1.0 27:0.0 28:0.0 29:0.0 30:1.0 31:0.0 32:0.0 33:0.0 34:0.0 35:1.0 36:1.0 37:0.0 38:0.0 39:0.0 40:0.0 41:0.0 42:1.0 43:1.0 44:1.0 45:0.0 46:0.0 47:0.0 48:1.0 49:1.0 50:0.0 51:0.0 52:0.0 53:0.0 54:1.0 55:0.0 56:1.0 57:1.0 58:1.0 59:1.0 60:0.0 
-1.0 -0.0 -0.0 -1.0 -1.0 -0.14152019980703498 -1.0 -0.0 -1.0 1:1.0 2:1.0 3:1.0 4:1.0 5:1.0 6:1.0 7:1.0 8:0.0 9:0.0 10:0.0 11:0.0 12:0.0 13:1.0 14:0.0 15:0.0 16:0.0 17:0.0 18:0.0 19:1.0 20:0.0 21:1.0 22:1.0 23:1.0 24:0.0 25:1.0 26:1.0 27:0.0 28:1.0 29:0.0 30:1.0 31:0.0 32:0.0 33:0.0 34:0.0 35:0.0 36:1.0 37:0.0 38:0.0 39:0.0 40:0.0 41:0.0 42:1.0 43:1.0 44:0.0 45:0.0 46:0.0 47:0.0 48:1.0 49:1.0 50:0.0 51:0.0 52:0.0 53:0.0 54:1.0 55:0.0 56:1.0 57:1.0 58:1.0 59:1.0 60:0.0 
-0.0 -0.0 -0.0 -0.0 -0.0 -0.14142903845655033 -0.0 -0.0 -0.0 1:1.0 2:1.0 3:1.0 4:1.0 5:1.0 6:1.0 7:1.0 8:0.0 9:0.0 10:0.0 11:0.0 12:0.0 13:1.0 14:0.0 15:0.0 16:0.0 17:0.0 18:0.0 19:1.0 20:0.0 21:1.0 22:1.0 23:1.0 24:0.0 25:1.0 26:1.0 27:0.0 28:0.0 29:0.0 30:1.0 31:0.0 32:0.0 33:0.0 34:0.0 35:0.0 36:1.0 37:0.0 38:0.0 39:0.0 40:0.0 41:0.0 42:1.0 43:1.0 44:0.0 45:0.0 46:0.0 47:0.0 48:1.0 49:1.0 50:0.0 51:0.0 52:1.0 53:0.0 54:1.0 55:0.0 56:1.0 57:1.0 58:1.0 59:1.0 60:0.0 
-0.0 -0.5559998894707429 -0.0 -0.783638583675177 -0.41955155774049296 -0.0 -0.0 -1.0 -1.0 1:1.0 2:1.0 3:1.0 4:1.0 5:1.0 6:1.0 7:1.0 8:0.0 9:1.0 10:0.0 11:0.0 12:0.0 13:1.0 14:0.0 15:0.0 16:0.0 17:0.0 18:0.0 19:1.0 20:0.0 21:1.0 22:1.0 23:1.0 24:0.0 25:1.0 26:1.0 27:0.0 28:0.0 29:0.0 30:1.0 31:0.0 32:1.0 33:0.0 34:0.0 35:0.0 36:1.0 37:0.0 38:0.0 39:0.0 40:0.0 41:0.0 42:1.0 43:1.0 44:0.0 45:0.0 46:0.0 47:0.0 48:1.0 49:1.0 50:0.0 51:0.0 52:0.0 53:0.0 54:1.0 55:0.0 56:1.0 57:1.0 58:1.0 59:1.0 60:0.0 
-0.41688827644354304 -0.0 -0.0 -0.6661166094715454 -0.0 -0.0 -0.0 -0.0 -0.14288983817831646 1:1.0 2:1.0 3:1.0 4:1.0 5:1.0 6:1.0 7:1.0 8:0.0 9:0.0 10:0.0 11:0.0 12:0.0 13:1.0 14:0.0 15:0.0 16:0.0 17:0.0 18:0.0 19:1.0 20:0.0 21:1.0 22:1.0 23:1.0 24:0.0 25:1.0 26:1.0 27:0.0 28:0.0 29:0.0 30:1.0 31:0.0 32:0.0 33:0.0 34:0.0 35:0.0 36:1.0 37:1.0 38:0.0 39:0.0 40:0.0 41:0.0 42:1.0 43:1.0 44:0.0 45:0.0 46:0.0 47:0.0 48:1.0 49:1.0 50:0.0 51:0.0 52:0.0 53:0.0 54:1.0 55:0.0 56:1.0 57:1.0 58:1.0 59:1.0 60:0.0 
-0.37476288089495835 -0.0 -0.5527164267017554 -0.0 -0.0 -0.0 -0.0 -0.4964048156025989 -0.8509366368676994 1:1.0 2:1.0 3:1.0 4:1.0 5:1.0 6:1.0 7:1.0 8:0.0 9:0.0 10:0.0 11:0.0 12:0.0 13:1.0 14:0.0 15:0.0 16:0.0 17:0.0 18:0.0 19:1.0 20:0.0 21:1.0 22:1.0 23:1.0 24:1.0 25:1.0 26:1.0 27:0.0 28:0.0 29:0.0 30:1.0 31:0.0 32:0.0 33:0.0 34:0.0 35:0.0 36:1.0 37:0.0 38:0.0 39:0.0 40:0.0 41:0.0 42:1.0 43:1.0 44:0.0 45:0.0 46:0.0 47:0.0 48:1.0 49:1.0 50:0.0 51:0.0 52:0.0 53:0.0 54:1.0 55:0.0 56:1.0 57:1.0 58:1.0 59:1.0 60:0.0 
-0.0 -0.0 -1.0 -0.0 -0.0 -0.0 -0.0 -0.0 -0.0 1:1.0 2:1.0 3:1.0 4:1.0 5:1.0 6:1.0 7:1.0 8:0.0 9:0.0 10:0.0 11:0.0 12:0.0 13:1.0 14:0.0 15:0.0 16:0.0 17:0.0 18:0.0 19:1.0 20:0.0 21:1.0 22:1.0 23:1.0 24:0.0 25:1.0 26:1.0 27:0.0 28:0.0 29:0.0 30:1.0 31:0.0 32:0.0 33:0.0 34:0.0 35:0.0 36:1.0 37:0.0 38:0.0 39:0.0 40:0.0 41:0.0 42:1.0 43:1.0 44:1.0 45:0.0 46:0.0 47:0.0 48:1.0 49:1.0 50:0.0 51:0.0 52:0.0 53:0.0 54:1.0 55:1.0 56:1.0 57:1.0 58:1.0 59:1.0 60:0.0 
-0.971656480472473 -0.0 -0.8666811825311954 -0.0 -0.0 -0.0 -0.0 -0.9980049243893334 -0.9706028555795657 1:1.0 2:1.0 3:1.0 4:1.0 5:1.0 6:1.0 7:1.0 8:0.0 9:0.0 10:0.0 11:0.0 12:0.0 13:1.0 14:0.0 15:0.0 16:0.0 17:0.0 18:0.0 19:1.0 20:0.0 21:1.0 22:1.0 23:1.0 24:1.0 25:1.0 26:1.0 27:0.0 28:0.0 29:0.0 30:1.0 31:0.0 32:0.0 33:0.0 34:0.0 35:0.0 36:1.0 37:0.0 38:0.0 39:0.0 40:0.0 41:0.0 42:1.0 43:1.0 44:0.0 45:0.0 46:0.0 47:0.0 48:1.0 49:1.0 50:0.0 51:0.0 52:0.0 53:0.0 54:1.0 55:0.0 56:1.0 57:1.0 58:1.0 59:1.0 60:0.0 
-0.0 -0.5571261360356994 -1.0 -0.0 -0.0 -0.0 -0.0 -0.0 -0.0 1:1.0 2:1.0 3:1.0 4:1.0 5:1.0 6:1.0 7:1.0 8:0.0 9:0.0 10:0.0 11:0.0 12:0.0 13:1.0 14:0.0 15:0.0 16:0.0 17:0.0 18:0.0 19:1.0 20:0.0 21:1.0 22:1.0 23:1.0 24:0.0 25:1.0 26:1.0 27:0.0 28:0.0 29:0.0 30:1.0 31:0.0 32:0.0 33:0.0 34:0.0 35:0.0 36:1.0 37:0.0 38:0.0 39:0.0 40:0.0 41:0.0 42:1.0 43:1.0 44:1.0 45:0.0 46:0.0 47:0.0 48:1.0 49:1.0 50:0.0 51:0.0 52:0.0 53:0.0 54:1.0 55:1.0 56:1.0 57:1.0 58:1.0 59:1.0 60:0.0 
-0.0 -0.6166930504002961 -0.0 -1.0 -0.11873729507192383 -0.0 -0.0 -0.0 -0.0 1:1.0 2:1.0 3:1.0 4:1.0 5:1.0 6:1.0 7:1.0 8:1.0 9:0.0 10:0.0 11:0.0 12:0.0 13:1.0 14:0.0 15:0.0 16:0.0 17:0.0 18:0.0 19:1.0 20:0.0 21:1.0 22:1.0 23:1.0 24:0.0 25:1.0 26:1.0 27:0.0 28:0.0 29:0.0 30:1.0 31:0.0 32:0.0 33:0.0 34:0.0 35:0.0 36:1.0 37:0.0 38:0.0 39:0.0 40:0.0 41:0.0 42:1.0 43:1.0 44:0.0 45:0.0 46:0.0 47:0.0 48:1.0 49:1.0 50:0.0 51:0.0 52:0.0 53:0.0 54:1.0 55:0.0 56:1.0 57:1.0 58:1.0 59:1.0 60:0.0 
-1.0 -0.9689083764759345 -0.9598243416414562 -0.39147429386789256 -0.6674193592475738 -0.9806735251338685 -1.0 -0.8910339841141819 -1.0 1:1.0 2:1.0 3:1.0 4:1.0 5:1.0 6:1.0 7:1.0 8:0.0 9:0.0 10:0.0 11:0.0 12:0.0 13:1.0 14:0.0 15:0.0 16:0.0 17:1.0 18:0.0 19:1.0 20:0.0 21:1.0 22:1.0 23:1.0 24:0.0 25:1.0 26:1.0 27:0.0 28:0.0 29:0.0 30:1.0 31:0.0 32:0.0 33:1.0 34:0.0 35:1.0 36:1.0 37:1.0 38:0.0 39:1.0 40:0.0 41:0.0 42:1.0 43:1.0 44:0.0 45:0.0 46:0.0 47:0.0 48:1.0 49:1.0 50:0.0 51:0.0 52:0.0 53:0.0 54:1.0 55:0.0 56:1.0 57:1.0 58:1.0 59:1.0 60:0.0 
-1.0 -0.0 -0.0 -1.0 -0.0 -1.0 -0.0 -0.0 -0.0 1:1.0 2:1.0 3:1.0 4:1.0 5:1.0 6:1.0 7:1.0 8:0.0 9:0.0 10:0.0 11:0.0 12:0.0 13:1.0 14:0.0 15:0.0 16:0.0 17:0.0 18:0.0 19:1.0 20:0.0 21:1.0 22:1.0 23:1.0 24:0.0 25:1.0 26:1.0 27:0.0 28:0.0 29:0.0 30:1.0 31:1.0 32:0.0 33:0.0 34:0.0 35:0.0 36:1.0 37:0.0 38:0.0 39:0.0 40:0.0 41:1.0 42:1.0 43:1.0 44:0.0 45:0.0 46:0.0 47:0.0 48:1.0 49:1.0 50:0.0 51:0.0 52:0.0 53:0.0 54:1.0 55:0.0 56:1.0 57:1.0 58:1.0 59:1.0 60:0.0 
-0.0 -0.0 -0.0 -0.0 -1.0 -0.0 -0.0 -0.0 -0.0 1:1.0 2:1.0 3:1.0 4:1.0 5:1.0 6:1.0 7:1.0 8:0.0 9:0.0 10:0.0 11:0.0 12:0.0 13:1.0 14:0.0 15:0.0 16:0.0 17:0.0 18:0.0 19:1.0 20:0.0 21:1.0 22:1.0 23:1.0 24:0.0 25:1.0 26:1.0 27:0.0 28:0.0 29:0.0 30:1.0 31:0.0 32:0.0 33:0.0 34:0.0 35:1.0 36:1.0 37:0.0 38:0.0 39:0.0 40:0.0 41:0.0 42:1.0 43:1.0 44:0.0 45:0.0 46:0.0 47:0.0 48:1.0 49:1.0 50:0.0 51:0.0 52:0.0 53:0.0 54:1.0 55:0.0 56:1.0 57:1.0 58:1.0 59:1.0 60:0.0 
-0.8491616868462638 -0.10046165936682666 -0.32048499878129416 -0.6005505717563031 -1.0 -0.0 -0.0 -0.0 -1.0 1:1.0 2:1.0 3:1.0 4:1.0 5:1.0 6:1.0 7:1.0 8:0.0 9:0.0 10:0.0 11:0.0 12:0.0 13:1.0 14:0.0 15:0.0 16:0.0 17:0.0 18:0.0 19:1.0 20:0.0 21:1.0 22:1.0 23:1.0 24:0.0 25:1.0 26:1.0 27:1.0 28:0.0 29:0.0 30:1.0 31:0.0 32:0.0 33:0.0 34:0.0 35:1.0 36:1.0 37:0.0 38:0.0 39:0.0 40:0.0 41:0.0 42:1.0 43:1.0 44:0.0 45:0.0 46:0.0 47:0.0 48:1.0 49:1.0 50:0.0 51:0.0 52:0.0 53:0.0 54:1.0 55:0.0 56:1.0 57:1.0 58:1.0 59:1.0 60:0.0 
